{"learner":{"attributes":{"scikit_learn":"{\"_estimator_type\": \"classifier\"}"},"feature_names":["total_views","total_carts","avg_price","max_price","total_events","avg_hour","hour_std","active_days","num_categories","num_products","price_std","min_price","has_carted","high_activity","multi_category"],"feature_types":["int","int","float","float","int","float","float","int","int","int","float","float","int","int","int"],"gradient_booster":{"model":{"cats":{"enc":[],"feature_segments":[],"sorted_idx":[]},"gbtree_model_param":{"num_parallel_tree":"1","num_trees":"300"},"iteration_indptr":[0,1,2,3,4,5,6,7,8,9,10,11,12,13,14,15,16,17,18,19,20,21,22,23,24,25,26,27,28,29,30,31,32,33,34,35,36,37,38,39,40,41,42,43,44,45,46,47,48,49,50,51,52,53,54,55,56,57,58,59,60,61,62,63,64,65,66,67,68,69,70,71,72,73,74,75,76,77,78,79,80,81,82,83,84,85,86,87,88,89,90,91,92,93,94,95,96,97,98,99,100,101,102,103,104,105,106,107,108,109,110,111,112,113,114,115,116,117,118,119,120,121,122,123,124,125,126,127,128,129,130,131,132,133,134,135,136,137,138,139,140,141,142,143,144,145,146,147,148,149,150,151,152,153,154,155,156,157,158,159,160,161,162,163,164,165,166,167,168,169,170,171,172,173,174,175,176,177,178,179,180,181,182,183,184,185,186,187,188,189,190,191,192,193,194,195,196,197,198,199,200,201,202,203,204,205,206,207,208,209,210,211,212,213,214,215,216,217,218,219,220,221,222,223,224,225,226,227,228,229,230,231,232,233,234,235,236,237,238,239,240,241,242,243,244,245,246,247,248,249,250,251,252,253,254,255,256,257,258,259,260,261,262,263,264,265,266,267,268,269,270,271,272,273,274,275,276,277,278,279,280,281,282,283,284,285,286,287,288,289,290,291,292,293,294,295,296,297,298,299,300],"tree_info":[0,0,0,0,0,0,0,0,0,0,0,0,0,0,0,0,0,0,0,0,0,0,0,0,0,0,0,0,0,0,0,0,0,0,0,0,0,0,0,0,0,0,0,0,0,0,0,0,0,0,0,0,0,0,0,0,0,0,0,0,0,0,0,0,0,0,0,0,0,0,0,0,0,0,0,0,0,0,0,0,0,0,0,0,0,0,0,0,0,0,0,0,0,0,0,0,0,0,0,0,0,0,0,0,0,0,0,0,0,0,0,0,0,0,0,0,0,0,0,0,0,0,0,0,0,0,0,0,0,0,0,0,0,0,0,0,0,0,0,0,0,0,0,0,0,0,0,0,0,0,0,0,0,0,0,0,0,0,0,0,0,0,0,0,0,0,0,0,0,0,0,0,0,0,0,0,0,0,0,0,0,0,0,0,0,0,0,0,0,0,0,0,0,0,0,0,0,0,0,0,0,0,0,0,0,0,0,0,0,0,0,0,0,0,0,0,0,0,0,0,0,0,0,0,0,0,0,0,0,0,0,0,0,0,0,0,0,0,0,0,0,0,0,0,0,0,0,0,0,0,0,0,0,0,0,0,0,0,0,0,0,0,0,0,0,0,0,0,0,0,0,0,0,0,0,0,0,0,0,0,0,0,0,0,0,0,0,0,0,0,0,0,0,0,0,0,0,0,0,0],"trees":[{"base_weights":[2.67883E-4,-7.8110605E-1,1.6816782E0,-1.537835E0,-4.144001E-2,-1.8921071E0,1.6913542E0,-1.875003E0,-1.0364913E0,-4.0596092E-1,6.12958E-1,3.5606074E-1,-9.985027E-2,1.5019376E0,1.8160205E0,-1.9983753E0,-1.6564469E0,9.999033E-2,-1.3497463E0,9.998834E-2,-5.2579594E-1,3.6020687E-1,9.7049725E-1,-9.142857E-2,7.7320755E-2,9.997825E-2,1.478528E0,-1.8871828E0,1.8179818E0,9.768285E-2,-9.999905E-2,9.9980384E-2,-9.999816E-2,-9.9997364E-2,-9.5546705E-1,-9.999361E-2,-3.7855563E-1,9.996801E-2,2.6848835E-1,1.1539944E0,6.1485296E-1,-9.990064E-2,1.5146633E0,-1.3937689E0,-9.853659E-2,1.7602274E0,1.8942264E0,9.998925E-2,-7.3645055E-2,9.998414E-2,-2.3918224E-2,-9.994403E-2,1.7169435E-2,3.8833976E-2,6.327035E-2,2.2245783E-2,4.4541705E-2,9.9987976E-2,7.345336E-2,-9.045454E-2,-2.0614464E-2,5.4246247E-2,8.829719E-2,5.0860506E-2,9.486207E-2],"categories":[],"categories_nodes":[],"categories_segments":[],"categories_sizes":[],"default_left":[0,0,0,0,0,0,0,0,0,0,0,0,0,0,0,0,0,0,0,0,0,0,0,0,0,0,0,0,0,0,0,0,0,0,0,0,0,0,0,0,0,0,0,0,0,0,0,0,0,0,0,0,0,0,0,0,0,0,0,0,0,0,0,0,0],"id":0,"left_children":[1,3,5,7,9,11,13,15,17,19,21,23,-1,25,27,29,31,-1,33,-1,35,37,39,-1,-1,-1,41,43,45,-1,-1,-1,-1,-1,47,-1,49,-1,51,53,55,-1,57,59,-1,61,63,-1,-1,-1,-1,-1,-1,-1,-1,-1,-1,-1,-1,-1,-1,-1,-1,-1,-1],"loss_changes":[1.1246161E6,3.271106E5,9.394375E3,4.8828125E4,7.0498586E4,1.7391821E2,6.392875E3,4.653375E3,1.1048594E5,5.4721234E4,9.55418E3,8.996016E1,0E0,1.2491406E3,1.18975E3,7.044375E2,7.827775E4,0E0,2.6991703E4,0E0,3.9241402E4,9.311922E3,2.8566602E3,0E0,0E0,0E0,1.2903047E4,5.003052E-1,7.151875E2,0E0,0E0,0E0,0E0,0E0,1.0023908E5,0E0,3.902097E4,0E0,9.96301E3,1.2129805E3,6.9852295E2,0E0,2.244625E3,5.6261044E0,0E0,3.5640625E2,1.8379688E2,0E0,0E0,0E0,0E0,0E0,0E0,0E0,0E0,0E0,0E0,0E0,0E0,0E0,0E0,0E0,0E0,0E0,0E0],"parents":[2147483647,0,0,1,1,2,2,3,3,4,4,5,5,6,6,7,7,8,8,9,9,10,10,11,11,13,13,14,14,15,15,16,16,18,18,20,20,21,21,22,22,26,26,27,27,28,28,34,34,36,36,38,38,39,39,40,40,42,42,43,43,45,45,46,46],"right_children":[2,4,6,8,10,12,14,16,18,20,22,24,-1,26,28,30,32,-1,34,-1,36,38,40,-1,-1,-1,42,44,46,-1,-1,-1,-1,-1,48,-1,50,-1,52,54,56,-1,58,60,-1,62,64,-1,-1,-1,-1,-1,-1,-1,-1,-1,-1,-1,-1,-1,-1,-1,-1,-1,-1],"split_conditions":[1E0,6E0,3E0,3E0,2.5E1,1E0,2E0,2E0,3E0,6E0,5.3E1,2E0,-9.985027E-2,2E0,4E0,1E0,2E0,9.999033E-2,4E0,9.998834E-2,7E0,2.5E1,2.4652E2,-9.142857E-2,7.7320755E-2,9.997825E-2,4E0,1.12695625E2,4E0,9.768285E-2,-9.999905E-2,9.9980384E-2,-9.999816E-2,-9.9997364E-2,4E0,-9.999361E-2,7E0,9.996801E-2,2.6E1,4E0,9.6E1,-9.990064E-2,3E0,7.465E1,-9.853659E-2,5E0,8E0,9.998925E-2,-7.3645055E-2,9.998414E-2,-2.3918224E-2,-9.994403E-2,1.7169435E-2,3.8833976E-2,6.327035E-2,2.2245783E-2,4.4541705E-2,9.9987976E-2,7.345336E-2,-9.045454E-2,-2.0614464E-2,5.4246247E-2,8.829719E-2,5.0860506E-2,9.486207E-2],"split_indices":[1,4,4,4,4,0,1,4,0,0,4,4,0,0,4,0,0,0,4,0,4,0,2,0,0,0,4,2,1,0,0,0,0,0,0,0,0,0,4,7,4,0,0,2,0,4,4,0,0,0,0,0,0,0,0,0,0,0,0,0,0,0,0,0,0],"split_type":[0,0,0,0,0,0,0,0,0,0,0,0,0,0,0,0,0,0,0,0,0,0,0,0,0,0,0,0,0,0,0,0,0,0,0,0,0,0,0,0,0,0,0,0,0,0,0,0,0,0,0,0,0,0,0,0,0,0,0,0,0,0,0,0,0],"sum_hessian":[8.559937E5,5.844107E5,2.71583E5,2.888728E5,2.9553788E5,7.32767E2,2.7085025E5,1.7271445E5,1.1615837E5,1.8980878E5,1.0572911E5,3.251705E1,7.0025E2,1.07511836E5,1.633384E5,1.1039131E5,6.2323137E4,1.0862765E4,1.052956E5,9.005421E3,1.8080336E5,6.194285E4,4.3786258E4,1.125E1,2.1267054E1,4.826397E3,1.0268544E5,8.5926704E1,1.6325247E5,4.4314224E1,1.10347E5,5.3523877E3,5.697075E4,3.974625E4,6.554935E4,1.64185E4,1.6438486E5,3.2811792E3,5.866167E4,2.8881908E4,1.4904349E4,1.05575E3,1.0162969E5,1.5176705E1,7.075E1,9.2904125E4,7.034834E4,9.76647E3,5.5782883E4,6.6201597E3,1.5776469E5,1.875E3,5.678667E4,6.586072E3,2.2295836E4,9.226217E3,5.6781323E3,8.727976E3,9.290171E4,1E1,5.1767054E0,7.815588E2,9.212257E4,2.42287E2,7.0106055E4],"tree_param":{"num_deleted":"0","num_feature":"15","num_nodes":"65","size_leaf_vector":"1"}},{"base_weights":[2.9220319E-4,-7.425056E-1,1.6007458E0,-1.3651179E0,7.9413235E-2,-1.8026615E0,1.6100132E0,-1.7851048E0,-9.125369E-1,-2.3868269E-1,6.7318E-1,3.576979E-1,-9.5106296E-2,1.4286116E0,1.7291226E0,-1.9036225E0,-1.5753086E0,9.5232986E-2,-1.1156559E0,1.9983987E0,-3.4802058E-1,9.1466653E-1,3.845112E-1,-8.756533E-2,7.781817E-2,9.522195E-2,1.4063076E0,-1.7202852E0,1.7310251E0,9.252795E-2,-9.5241E-2,9.5224135E-2,-9.524019E-2,-9.5239475E-2,-8.28807E-1,9.518125E-2,1.01192646E-1,-9.8809056E-2,-2.2152823E-1,1.6211033E-1,9.9919903E-1,1.823733E-1,7.6067746E-1,-9.515195E-2,1.440989E0,3.3009797E-2,-9.432015E-2,1.6757008E0,1.803888E0,9.523222E-2,-5.5017825E-2,1.0119094E-1,-1.54825775E-2,9.867264E-2,3.8074856E-3,4.0879942E-2,6.209453E-2,9.891685E-2,4.9252263E-3,5.9138558E-5,4.0082425E-2,9.5231E-2,6.9848344E-2,5.1448416E-2,8.4057614E-2,6.128908E-2,9.039892E-2],"categories":[],"categories_nodes":[],"categories_segments":[],"categories_sizes":[],"default_left":[0,0,0,0,0,0,0,0,0,0,0,0,0,0,0,0,0,0,0,0,0,0,0,0,0,0,0,0,0,0,0,0,0,0,0,0,0,0,0,0,0,0,0,0,0,0,0,0,0,0,0,0,0,0,0,0,0,0,0,0,0,0,0,0,0,0,0],"id":1,"left_children":[1,3,5,7,9,11,13,15,17,19,21,23,-1,25,27,29,31,-1,33,35,37,39,41,-1,-1,-1,43,45,47,-1,-1,-1,-1,-1,49,-1,-1,-1,51,53,55,57,59,-1,61,-1,-1,63,65,-1,-1,-1,-1,-1,-1,-1,-1,-1,-1,-1,-1,-1,-1,-1,-1,-1,-1],"loss_changes":[1.01644006E6,2.988404E5,8.5515625E3,6.315575E4,4.7540137E4,1.5908398E2,5.837375E3,4.2818125E3,9.151958E4,4.0089527E4,6.1203086E3,8.6665924E1,0E0,1.1340625E3,1.0736562E3,4.9865625E2,7.134275E4,0E0,3.3766297E4,1.4177734E1,3.218132E4,3.0410703E3,3.041026E3,0E0,0E0,0E0,1.174925E4,3.711862E1,6.5396875E2,0E0,0E0,0E0,0E0,0E0,8.121332E4,0E0,0E0,0E0,2.8690762E4,7.5156836E2,1.8930312E3,3.9185674E3,4.3493262E2,0E0,2.06425E3,0E0,0E0,3.2484375E2,1.6389062E2,0E0,0E0,0E0,0E0,0E0,0E0,0E0,0E0,0E0,0E0,0E0,0E0,0E0,0E0,0E0,0E0,0E0,0E0],"parents":[2147483647,0,0,1,1,2,2,3,3,4,4,5,5,6,6,7,7,8,8,9,9,10,10,11,11,13,13,14,14,15,15,16,16,18,18,19,19,20,20,21,21,22,22,26,26,27,27,28,28,34,34,38,38,39,39,40,40,41,41,42,42,44,44,47,47,48,48],"right_children":[2,4,6,8,10,12,14,16,18,20,22,24,-1,26,28,30,32,-1,34,36,38,40,42,-1,-1,-1,44,46,48,-1,-1,-1,-1,-1,50,-1,-1,-1,52,54,56,58,60,-1,62,-1,-1,64,66,-1,-1,-1,-1,-1,-1,-1,-1,-1,-1,-1,-1,-1,-1,-1,-1,-1,-1],"split_conditions":[1E0,8E0,3E0,3E0,3E1,1E0,2E0,2E0,3E0,8E0,2.04765E2,2E0,-9.5106296E-2,2E0,4E0,1E0,2E0,9.5232986E-2,4E0,7E0,9E0,1.4491377E0,6.6E1,-8.756533E-2,7.781817E-2,9.522195E-2,4E0,1E0,4E0,9.252795E-2,-9.5241E-2,9.5224135E-2,-9.524019E-2,-9.5239475E-2,4E0,9.518125E-2,1.01192646E-1,-9.8809056E-2,9E0,3E1,6.3E1,3E1,1.7320508E0,-9.515195E-2,3E0,3.3009797E-2,-9.432015E-2,5E0,9E0,9.523222E-2,-5.5017825E-2,1.0119094E-1,-1.54825775E-2,9.867264E-2,3.8074856E-3,4.0879942E-2,6.209453E-2,9.891685E-2,4.9252263E-3,5.9138558E-5,4.0082425E-2,9.5231E-2,6.9848344E-2,5.1448416E-2,8.4057614E-2,6.128908E-2,9.039892E-2],"split_indices":[1,4,4,4,4,0,1,4,0,0,2,4,0,0,4,0,0,0,4,0,4,6,4,0,0,0,4,0,1,0,0,0,0,0,0,0,0,0,0,0,4,0,6,0,0,0,0,4,4,0,0,0,0,0,0,0,0,0,0,0,0,0,0,0,0,0,0],"split_type":[0,0,0,0,0,0,0,0,0,0,0,0,0,0,0,0,0,0,0,0,0,0,0,0,0,0,0,0,0,0,0,0,0,0,0,0,0,0,0,0,0,0,0,0,0,0,0,0,0,0,0,0,0,0,0,0,0,0,0,0,0,0,0,0,0,0,0],"sum_hessian":[8.550019E5,5.839713E5,2.7103056E5,3.322715E5,2.5169978E5,7.3545776E2,2.702951E5,1.7234002E5,1.599315E5,1.6389662E5,8.780315E4,3.2212048E1,7.0324567E2,1.0713863E5,1.6315647E5,1.1012166E5,6.2218363E4,1.0754938E4,1.4917655E5,7.6363687E3,1.5626025E5,4.7807312E4,3.999584E4,1.1476001E1,2.0736046E1,4.7932153E3,1.02345414E5,8.94072E1,1.6306706E5,3.45981E1,1.1008706E5,5.381316E3,5.6837047E4,3.9767754E4,1.094088E5,1.6336134E3,6.0027554E3,1.126364E4,1.4499661E5,4.828182E3,4.297913E4,2.6017008E4,1.3978832E4,1.0608511E3,1.0128457E5,5.598856E0,8.380835E1,9.270335E4,7.036372E4,9.886241E3,9.9522555E4,5.4749136E3,1.395217E5,2.1770166E2,4.6104805E3,2.458646E4,1.839267E4,1.1596886E3,2.485732E4,7.1567004E2,1.3263162E4,8.7792295E3,9.2505336E4,7.766339E2,9.192672E4,4.966527E2,6.986706E4],"tree_param":{"num_deleted":"0","num_feature":"15","num_nodes":"67","size_leaf_vector":"1"}},{"base_weights":[-5.115563E-4,-7.069079E-1,1.5277479E0,-1.4007944E0,-3.2602686E-2,-1.7140609E0,1.5364828E0,-1.7093663E0,-9.440979E-1,-3.8498995E-1,5.251305E-1,-1.6623625E0,-9.0793826E-2,1.3630211E0,1.6512913E0,-9.1073655E-2,-1.510655E0,8.2201175E-2,-1.2750518E0,3.6022282E-1,-5.2375823E-1,2.8901738E-1,8.7295717E-1,-1.6738514E0,-4.7791045E-2,1.5458351E0,1.323327E0,-1.7247158E0,1.653127E0,-1.151288E0,-9.0930216E-2,1.9587706E-1,-8.46244E-1,-1.5712526E0,-1.1038218E0,8.2395166E-1,1.4818558E-1,-9.6752524E-1,-3.7545723E-1,6.045702E-1,7.197431E-2,1.0418258E0,5.398286E-1,-8.4250025E-2,-1.1365528E0,1.3124825E0,1.6400237E0,-1.6676079E0,1.3329315E0,-1.3144109E0,-8.999533E-2,1.5679762E0,1.7012031E0,-5.426402E-2,-9.109425E-2,-1.8707328E-3,3.16183E-2,-6.8171464E-2,-1.706076E-2,-6.932192E-2,-8.138501E-2,-3.5082363E-2,-6.217754E-2,4.702972E-3,4.7574885E-2,-1.7705943E-2,1.9654479E-2,-4.4102784E-2,-6.834486E-2,-3.3170313E-2,-8.801031E-3,-1.6463865E-2,3.479676E-2,-2.8837541E-2,8.215921E-3,4.4906672E-2,6.350418E-2,-9.714557E-3,2.9722566E-2,-7.902547E-2,-1.803977E-2,6.645383E-2,-6.804356E-2,6.6158846E-2,8.277439E-2,-3.9293624E-2,-8.801821E-2,3.9123323E-2,6.7303546E-2,-8.42987E-2,-1.9354356E-2,5.1466044E-2,7.874022E-2,-1.00954525E-1,8.510258E-2],"categories":[],"categories_nodes":[],"categories_segments":[],"categories_sizes":[],"default_left":[0,0,0,0,0,0,0,0,0,0,0,0,0,0,0,0,0,0,0,0,0,0,0,0,0,0,0,0,0,0,0,0,0,0,0,0,0,0,0,0,0,0,0,0,0,0,0,0,0,0,0,0,0,0,0,0,0,0,0,0,0,0,0,0,0,0,0,0,0,0,0,0,0,0,0,0,0,0,0,0,0,0,0,0,0,0,0,0,0,0,0,0,0,0,0],"id":2,"left_children":[1,3,5,7,9,11,13,15,17,19,21,23,-1,25,27,-1,29,31,33,35,37,39,41,43,-1,45,47,49,51,53,-1,55,57,59,61,63,65,67,69,71,73,75,77,-1,79,81,83,85,87,89,-1,91,93,-1,-1,-1,-1,-1,-1,-1,-1,-1,-1,-1,-1,-1,-1,-1,-1,-1,-1,-1,-1,-1,-1,-1,-1,-1,-1,-1,-1,-1,-1,-1,-1,-1,-1,-1,-1,-1,-1,-1,-1,-1,-1],"loss_changes":[9.184739E5,2.7224034E5,7.6183125E3,4.0409375E4,5.7996125E4,4.399414E-1,5.339E3,3.809125E3,3.927467E4,1.8700598E4,9.382945E3,2.1317139E0,0E0,7.7290625E2,1.00309375E3,0E0,6.8290625E3,2.9759668E3,4.432547E3,2.7911094E3,1.0032199E4,4.66108E3,2.598125E3,6.9470215E-1,0E0,4.1628125E2,2.52375E3,4.296875E-2,6.5734375E2,1.2588164E3,0E0,2.5581694E3,8.0273193E2,3.3154688E2,3.112664E3,8.290039E2,2.3967444E3,1.3019531E3,6.561702E3,2.3666094E3,2.4157214E3,1.0041133E3,6.23417E2,0E0,3.7364101E0,2.450752E2,6.3992188E1,2.1375488E1,6.316094E2,5.193613E0,0E0,2.1225E2,3.288125E2,0E0,0E0,0E0,0E0,0E0,0E0,0E0,0E0,0E0,0E0,0E0,0E0,0E0,0E0,0E0,0E0,0E0,0E0,0E0,0E0,0E0,0E0,0E0,0E0,0E0,0E0,0E0,0E0,0E0,0E0,0E0,0E0,0E0,0E0,0E0,0E0,0E0,0E0,0E0,0E0,0E0,0E0],"parents":[2147483647,0,0,1,1,2,2,3,3,4,4,5,5,6,6,7,7,8,8,9,9,10,10,11,11,13,13,14,14,16,16,17,17,18,18,19,19,20,20,21,21,22,22,23,23,25,25,26,26,27,27,28,28,29,29,31,31,32,32,33,33,34,34,35,35,36,36,37,37,38,38,39,39,40,40,41,41,42,42,44,44,45,45,46,46,47,47,48,48,49,49,51,51,52,52],"right_children":[2,4,6,8,10,12,14,16,18,20,22,24,-1,26,28,-1,30,32,34,36,38,40,42,44,-1,46,48,50,52,54,-1,56,58,60,62,64,66,68,70,72,74,76,78,-1,80,82,84,86,88,90,-1,92,94,-1,-1,-1,-1,-1,-1,-1,-1,-1,-1,-1,-1,-1,-1,-1,-1,-1,-1,-1,-1,-1,-1,-1,-1,-1,-1,-1,-1,-1,-1,-1,-1,-1,-1,-1,-1,-1,-1,-1,-1,-1,-1],"split_conditions":[1E0,6E0,3E0,3E0,2.3E1,3.6037E2,2E0,2E0,4.9497474E-2,2.1114208E1,5.1E1,3.5857E2,-9.0793826E-2,9.9148375E-1,4E0,-9.1073655E-2,4.9497474E-2,1.1338934E0,4E0,4.0293956E0,4.2163703E-1,1.5919125E2,2.4845E2,2.6667875E-1,-4.7791045E-2,4E0,4E0,1.07652855E2,3E0,7.2627306E-1,-9.0930216E-2,4E0,4E0,1.900691E1,2.5556902E1,2.314E1,2.6667875E-1,4E0,1.1E1,5.163978E-1,1.024695E0,9.6E1,1.7320508E0,-8.4250025E-2,1.9112334E2,5.9361684E-1,3.835E1,3.535534E0,5E0,1.3066667E1,-8.999533E-2,5E0,5E0,-5.426402E-2,-9.109425E-2,-1.8707328E-3,3.16183E-2,-6.8171464E-2,-1.706076E-2,-6.932192E-2,-8.138501E-2,-3.5082363E-2,-6.217754E-2,4.702972E-3,4.7574885E-2,-1.7705943E-2,1.9654479E-2,-4.4102784E-2,-6.834486E-2,-3.3170313E-2,-8.801031E-3,-1.6463865E-2,3.479676E-2,-2.8837541E-2,8.215921E-3,4.4906672E-2,6.350418E-2,-9.714557E-3,2.9722566E-2,-7.902547E-2,-1.803977E-2,6.645383E-2,-6.804356E-2,6.6158846E-2,8.277439E-2,-3.9293624E-2,-8.801821E-2,3.9123323E-2,6.7303546E-2,-8.42987E-2,-1.9354356E-2,5.1466044E-2,7.874022E-2,-1.00954525E-1,8.510258E-2],"split_indices":[1,4,4,4,4,3,1,4,10,10,4,2,0,10,4,0,10,6,4,10,6,2,2,6,0,4,4,2,1,6,0,4,4,10,10,11,6,8,4,6,6,4,6,0,2,6,11,10,4,5,0,4,4,0,0,0,0,0,0,0,0,0,0,0,0,0,0,0,0,0,0,0,0,0,0,0,0,0,0,0,0,0,0,0,0,0,0,0,0,0,0,0,0,0,0],"split_type":[0,0,0,0,0,0,0,0,0,0,0,0,0,0,0,0,0,0,0,0,0,0,0,0,0,0,0,0,0,0,0,0,0,0,0,0,0,0,0,0,0,0,0,0,0,0,0,0,0,0,0,0,0,0,0,0,0,0,0,0,0,0,0,0,0,0,0,0,0,0,0,0,0,0,0,0,0,0,0,0,0,0,0,0,0,0,0,0,0,0,0,0,0,0,0],"sum_hessian":[8.5078594E5,5.818447E5,2.6894128E5,2.8675812E5,2.9508656E5,7.221563E2,2.6821912E5,1.711296E5,1.15628516E5,1.8083303E5,1.1425352E5,4.911013E2,2.31055E2,1.0682823E5,1.613909E5,1.0940058E5,6.172902E4,2.8195086E4,8.743343E4,2.8386994E4,1.5244603E5,6.805695E4,4.6196574E4,4.8175696E2,9.344342E0,1.9050309E4,8.7777914E4,8.717221E1,1.6130373E5,2.8488684E4,3.3240336E4,2.5120328E4,3.0747568E3,3.2025549E4,5.540788E4,8.906022E3,1.9480973E4,3.8183074E4,1.1426296E5,2.77336E4,4.032335E4,3.065474E4,1.5541835E4,4.6968857E2,1.2068377E1,5.4827563E3,1.3567553E4,2.8038477E2,8.749753E4,1.6568937E1,7.060327E1,5.8220727E4,1.03083E5,2.5938314E4,2.550369E3,1.6371098E4,8.74923E3,1.5181578E3,1.556599E3,7.499362E3,2.4526188E4,1.4288575E4,4.1119305E4,1.325167E3,7.580855E3,6.3847764E3,1.3096196E4,3.1454873E4,6.7281997E3,4.675488E4,6.7508086E4,2.4712363E3,2.5262363E4,5.023875E3,3.5299477E4,1.8815463E4,1.1839278E4,1.0760139E3,1.4465821E4,6.9339046E0,5.1344714E0,5.4494707E3,3.3285755E1,6.356948E2,1.2931858E4,2.769248E1,2.5269228E2,2.041442E3,8.5456086E4,1.1168118E1,5.4008203E0,7.308651E2,5.7489863E4,2.2935884E1,1.0306007E5],"tree_param":{"num_deleted":"0","num_feature":"15","num_nodes":"95","size_leaf_vector":"1"}},{"base_weights":[-3.8072493E-4,-6.7521614E-1,1.4641091E0,-1.12428E0,1.01924665E-1,1.2841849E0,1.5844175E0,-1.5804197E0,-9.198621E-1,-1.6712806E-1,6.5524334E-1,1.3155499E0,1.1853173E0,1.5015581E0,1.6314956E0,-1.5899299E0,9.319731E-2,-1.1245184E0,-7.485307E-1,-7.6454616E-1,-1.6355239E-2,2.8280187E-1,8.257018E-1,1.3456856E0,1.2572596E0,1.2596238E0,1.1262699E0,1.2675618E0,1.505285E0,1.5941389E0,1.6719382E0,9.277021E-2,-1.5911738E0,-7.73011E-1,-1.360755E0,-3.4294343E-1,-1.0628186E0,6.413797E-2,-9.3073136E-1,4.2787E-1,-1.7401369E-1,-5.946544E-1,3.637763E-1,1.0920024E0,5.9094274E-1,1.0885377E0,1.3517846E0,1.3355713E0,1.1764773E0,8.273316E-1,1.2710853E0,9.6417797E-1,1.1885935E0,-3.8183756E-2,1.2815334E0,1.5185183E0,1.4570253E0,1.4153931E0,1.599924E0,1.3770496E0,1.6771141E0,-7.827655E-2,-8.202853E-2,-3.3513457E-2,-6.708861E-2,-7.546958E-2,-6.054757E-2,-2.654689E-2,3.3207803E-3,-6.904589E-2,-4.39414E-2,3.3997793E-2,-7.2923335E-3,-3.1354543E-2,-5.4200977E-2,1.1168755E-2,4.162475E-2,-3.2652266E-2,1.9269664E-3,-1.286305E-2,-5.7146765E-2,3.697149E-2,9.088217E-3,4.890047E-2,6.398101E-2,2.346745E-2,4.3700706E-2,3.5533052E-2,5.6134917E-2,7.029996E-2,6.6511236E-2,5.124218E-2,6.7144625E-2,6.0737617E-2,5.589285E-2,4.700841E-2,1.861175E-2,6.50865E-2,6.0445365E-2,5.20307E-2,4.176287E-2,6.380776E-2,5.5614468E-2,6.445529E-2,2.0376293E-2,7.717098E-2,7.4676506E-2,7.472871E-2,7.180001E-2,4.7535367E-2,7.275214E-2,8.0376044E-2,7.768759E-2,6.0630977E-2,7.2617546E-2,8.284555E-2,8.511077E-2],"categories":[],"categories_nodes":[],"categories_segments":[],"categories_sizes":[],"default_left":[0,0,0,0,0,0,0,0,0,0,0,0,0,0,0,0,0,0,0,0,0,0,0,0,0,0,0,0,0,0,0,0,0,0,0,0,0,0,0,0,0,0,0,0,0,0,0,0,0,0,0,0,0,0,0,0,0,0,0,0,0,0,0,0,0,0,0,0,0,0,0,0,0,0,0,0,0,0,0,0,0,0,0,0,0,0,0,0,0,0,0,0,0,0,0,0,0,0,0,0,0,0,0,0,0,0,0,0,0,0,0,0,0,0,0,0,0],"id":3,"left_children":[1,3,5,7,9,11,13,15,17,19,21,23,25,27,29,31,-1,33,35,37,39,41,43,45,47,49,51,53,55,57,59,-1,61,63,65,67,69,71,73,75,77,79,81,83,85,87,89,91,93,95,97,99,101,-1,103,105,107,109,111,113,115,-1,-1,-1,-1,-1,-1,-1,-1,-1,-1,-1,-1,-1,-1,-1,-1,-1,-1,-1,-1,-1,-1,-1,-1,-1,-1,-1,-1,-1,-1,-1,-1,-1,-1,-1,-1,-1,-1,-1,-1,-1,-1,-1,-1,-1,-1,-1,-1,-1,-1,-1,-1,-1,-1,-1,-1],"loss_changes":[8.3702294E5,2.02335E5,5.78075E3,3.4260594E4,3.1609994E4,3.301875E2,6.2178125E2,3.72775E3,8.8961875E3,1.2868185E4,4.4098496E3,1.4079688E2,1.1152344E2,4.8414062E1,1.5125E2,4.88875E2,0E0,9.599984E3,1.7605672E4,3.96483E3,7.9893687E3,1.5500344E3,2.9784395E3,8.228125E1,1.7348828E2,5.528711E1,1.4394531E2,2.7036865E1,3.3953125E1,5.2328125E1,7.215625E1,0E0,1.4071875E2,2.71475E3,1.5375703E3,4.640792E3,4.552992E3,6.221215E2,1.1152969E3,2.4721782E3,8.572753E3,3.405276E2,1.3652422E3,4.7602148E2,8.713086E2,1.51073E1,5.9E1,3.0378906E1,2.9033203E1,1.4814423E1,1.9355469E1,3.8363037E1,6.772168E1,0E0,5.331543E0,2.5265625E1,7.2851562E0,2.921045E1,1.521875E1,8.509766E0,2.1265625E1,0E0,0E0,0E0,0E0,0E0,0E0,0E0,0E0,0E0,0E0,0E0,0E0,0E0,0E0,0E0,0E0,0E0,0E0,0E0,0E0,0E0,0E0,0E0,0E0,0E0,0E0,0E0,0E0,0E0,0E0,0E0,0E0,0E0,0E0,0E0,0E0,0E0,0E0,0E0,0E0,0E0,0E0,0E0,0E0,0E0,0E0,0E0,0E0,0E0,0E0,0E0,0E0,0E0,0E0,0E0,0E0],"parents":[2147483647,0,0,1,1,2,2,3,3,4,4,5,5,6,6,7,7,8,8,9,9,10,10,11,11,12,12,13,13,14,14,15,15,17,17,18,18,19,19,20,20,21,21,22,22,23,23,24,24,25,25,26,26,27,27,28,28,29,29,30,30,32,32,33,33,34,34,35,35,36,36,37,37,38,38,39,39,40,40,41,41,42,42,43,43,44,44,45,45,46,46,47,47,48,48,49,49,50,50,51,51,52,52,54,54,55,55,56,56,57,57,58,58,59,59,60,60],"right_children":[2,4,6,8,10,12,14,16,18,20,22,24,26,28,30,32,-1,34,36,38,40,42,44,46,48,50,52,54,56,58,60,-1,62,64,66,68,70,72,74,76,78,80,82,84,86,88,90,92,94,96,98,100,102,-1,104,106,108,110,112,114,116,-1,-1,-1,-1,-1,-1,-1,-1,-1,-1,-1,-1,-1,-1,-1,-1,-1,-1,-1,-1,-1,-1,-1,-1,-1,-1,-1,-1,-1,-1,-1,-1,-1,-1,-1,-1,-1,-1,-1,-1,-1,-1,-1,-1,-1,-1,-1,-1,-1,-1,-1,-1,-1,-1,-1,-1],"split_conditions":[1E0,1E1,2E0,2E0,3.6E1,1.3375E1,3E0,2.6667875E-1,4E0,5.345225E-1,4E0,3.1069E2,5E0,5.249E1,5E0,1E0,9.319731E-2,2E0,4E0,6E0,8E0,5.2704626E-1,1.7926E2,4.116E1,6E0,3.99E1,1.846761E0,8.11E0,1.35E1,4E0,5E0,9.277021E-2,1.3066667E1,5.9361684E-1,3E0,6E0,2.6667875E-1,4E0,9E0,1.5E1,1.7E1,8.7493E2,1.2296E2,8.7E1,9.6E1,1.21E1,3E0,3E0,5.3167E2,1.7636364E1,3E0,2.9653E2,2.2735432E2,-3.8183756E-2,6.7720833E0,8E0,5E0,1.0749E2,1.4266666E1,3E0,8E0,-7.827655E-2,-8.202853E-2,-3.3513457E-2,-6.708861E-2,-7.546958E-2,-6.054757E-2,-2.654689E-2,3.3207803E-3,-6.904589E-2,-4.39414E-2,3.3997793E-2,-7.2923335E-3,-3.1354543E-2,-5.4200977E-2,1.1168755E-2,4.162475E-2,-3.2652266E-2,1.9269664E-3,-1.286305E-2,-5.7146765E-2,3.697149E-2,9.088217E-3,4.890047E-2,6.398101E-2,2.346745E-2,4.3700706E-2,3.5533052E-2,5.6134917E-2,7.029996E-2,6.6511236E-2,5.124218E-2,6.7144625E-2,6.0737617E-2,5.589285E-2,4.700841E-2,1.861175E-2,6.50865E-2,6.0445365E-2,5.20307E-2,4.176287E-2,6.380776E-2,5.5614468E-2,6.445529E-2,2.0376293E-2,7.717098E-2,7.4676506E-2,7.472871E-2,7.180001E-2,4.7535367E-2,7.275214E-2,8.0376044E-2,7.768759E-2,6.0630977E-2,7.2617546E-2,8.284555E-2,8.511077E-2],"split_indices":[1,0,1,0,0,5,1,6,0,6,7,2,9,3,1,0,0,9,9,9,9,6,2,3,9,3,6,3,5,0,0,0,5,6,0,0,6,9,9,0,0,3,2,0,0,2,9,5,2,5,9,2,2,0,6,9,9,3,5,0,1,0,0,0,0,0,0,0,0,0,0,0,0,0,0,0,0,0,0,0,0,0,0,0,0,0,0,0,0,0,0,0,0,0,0,0,0,0,0,0,0,0,0,0,0,0,0,0,0,0,0,0,0,0,0,0,0],"split_type":[0,0,0,0,0,0,0,0,0,0,0,0,0,0,0,0,0,0,0,0,0,0,0,0,0,0,0,0,0,0,0,0,0,0,0,0,0,0,0,0,0,0,0,0,0,0,0,0,0,0,0,0,0,0,0,0,0,0,0,0,0,0,0,0,0,0,0,0,0,0,0,0,0,0,0,0,0,0,0,0,0,0,0,0,0,0,0,0,0,0,0,0,0,0,0,0,0,0,0,0,0,0,0,0,0,0,0,0,0,0,0,0,0,0,0,0,0],"sum_hessian":[8.4693906E5,5.797784E5,2.671607E5,3.6745025E5,2.1232812E5,1.0706094E5,1.6009975E5,1.13709875E5,2.5374038E5,1.4286173E5,6.94664E4,8.126655E4,2.5794389E4,5.8018945E4,1.020808E5,1.13397336E5,3.1253528E2,1.15622516E5,1.3811786E5,2.8788043E4,1.1407369E5,2.1811916E4,4.765448E4,5.355511E4,2.7711438E4,1.1411671E4,1.4382718E4,9.153842E2,5.7103562E4,5.3087184E4,4.8993617E4,4.035675E1,1.13356984E5,4.647496E4,6.9147555E4,6.0301477E4,7.781638E4,4.808821E3,2.3979223E4,2.9880045E4,8.419365E4,1.8421718E3,1.9969744E4,2.2325408E4,2.532907E4,1.2453422E3,5.2309766E4,1.406237E4,1.3649067E4,2.9686093E2,1.111481E4,3.999317E3,1.0383401E4,5.837842E0,9.095464E2,4.4789316E4,1.2314244E4,1.6725454E3,5.1414637E4,8.500395E2,4.814358E4,7.4642984E4,3.8714E4,3.9366152E4,7.108807E3,3.470407E4,3.4443484E4,4.1323832E4,1.897764E4,2.8513219E4,4.9303164E4,1.2223365E3,3.5864846E3,8.046359E3,1.5932863E4,1.9849855E4,1.003019E4,2.5875754E4,5.831789E4,1.1414277E3,7.007441E2,6.516586E3,1.3453158E4,1.3891776E4,8.433631E3,1.7720299E4,7.6087725E3,1.0529761E2,1.1400446E3,1.4864017E4,3.744575E4,3.2726263E2,1.3735107E4,8.244534E3,5.4045337E3,2.3685062E2,6.0010315E1,7.430905E3,3.6839048E3,2.5057996E3,1.4935173E3,4.827101E3,5.5563003E3,9.011493E2,8.397063E0,2.240119E4,2.2388127E4,4.393354E3,7.92089E3,1.336538E2,1.5388916E3,4.41195E4,7.2951377E3,2.727929E2,5.772466E2,2.6713652E4,2.1429924E4],"tree_param":{"num_deleted":"0","num_feature":"15","num_nodes":"117","size_leaf_vector":"1"}},{"base_weights":[7.6214055E-4,-6.453029E-1,1.4062797E0,-1.3601981E0,-8.3165854E-2,-1.7267236E0,1.4147081E0,-1.5865932E0,-9.204245E-1,-4.1235185E-1,4.4482055E-1,1.4582768E-1,-9.02156E-2,1.2491518E0,1.524361E0,-1.6919935E0,-1.4011564E0,1.8765196E0,-1.3208498E0,2.1560915E0,-5.3734475E-1,1.0167306E-1,3.9465126E-1,-8.293677E-2,6.576517E-2,8.596631E-2,1.2275475E0,-1.6346543E0,1.5261103E0,8.929349E-2,-8.4678225E-2,1.9309918E0,-1.7172042E0,9.269696E-2,9.768564E-2,-1.73241E0,-8.8311017E-1,9.417279E-2,2.178892E0,-1.7992367E0,-3.8468724E-1,-9.708162E-2,4.45721E-1,-9.501784E-2,1.2604808E0,3.6260992E-2,-8.981707E-2,1.4469863E0,1.5709155E0,9.69876E-2,8.933379E-2,-8.729935E-2,-8.483592E-2,-8.915069E-2,-8.578049E-2,9.387625E-2,-9.041839E-2,1.10545576E-1,9.9277206E-2,-9.137735E-2,-8.949095E-2,9.984508E-2,-2.4851188E-2,9.51379E-3,3.8017724E-2,8.568315E-2,6.0886692E-2,4.7186356E-2,7.26775E-2,4.286314E-2,7.876324E-2],"categories":[],"categories_nodes":[],"categories_segments":[],"categories_sizes":[],"default_left":[0,0,0,0,0,0,0,0,0,0,0,0,0,0,0,0,0,0,0,0,0,0,0,0,0,0,0,0,0,0,0,0,0,0,0,0,0,0,0,0,0,0,0,0,0,0,0,0,0,0,0,0,0,0,0,0,0,0,0,0,0,0,0,0,0,0,0,0,0,0,0],"id":4,"left_children":[1,3,5,7,9,11,13,15,17,19,21,23,-1,25,27,29,31,33,35,37,39,-1,41,-1,-1,-1,43,45,47,-1,-1,49,51,-1,-1,53,55,-1,57,59,61,-1,63,-1,65,-1,-1,67,69,-1,-1,-1,-1,-1,-1,-1,-1,-1,-1,-1,-1,-1,-1,-1,-1,-1,-1,-1,-1,-1,-1],"loss_changes":[7.6483525E5,2.3189252E5,7.0065E3,2.5287688E4,5.6144883E4,1.0388379E2,4.8000625E3,3.2746562E3,9.668387E4,6.3879668E4,9.886369E3,6.3779694E1,0E0,1.0682812E3,8.818125E2,5.87125E2,6.4005805E4,1.4839844E1,1.36026875E4,5.289453E1,3.6550656E4,0E0,1.4349328E4,0E0,0E0,0E0,1.0383625E4,3.5183914E1,5.6121875E2,0E0,0E0,2.8164062E0,2.9421875E1,0E0,0E0,2.9671875E1,9.3479836E4,0E0,4.7898438E1,1.8359375E0,4.528654E4,0E0,9.458551E3,0E0,1.9295625E3,0E0,0E0,1.8836719E2,3.1354688E2,0E0,0E0,0E0,0E0,0E0,0E0,0E0,0E0,0E0,0E0,0E0,0E0,0E0,0E0,0E0,0E0,0E0,0E0,0E0,0E0,0E0,0E0],"parents":[2147483647,0,0,1,1,2,2,3,3,4,4,5,5,6,6,7,7,8,8,9,9,10,10,11,11,13,13,14,14,15,15,16,16,17,17,18,18,19,19,20,20,22,22,26,26,27,27,28,28,31,31,32,32,35,35,36,36,38,38,39,39,40,40,42,42,44,44,47,47,48,48],"right_children":[2,4,6,8,10,12,14,16,18,20,22,24,-1,26,28,30,32,34,36,38,40,-1,42,-1,-1,-1,44,46,48,-1,-1,50,52,-1,-1,54,56,-1,58,60,62,-1,64,-1,66,-1,-1,68,70,-1,-1,-1,-1,-1,-1,-1,-1,-1,-1,-1,-1,-1,-1,-1,-1,-1,-1,-1,-1,-1,-1],"split_conditions":[1E0,5E0,3E0,3E0,2.1E1,1E0,2E0,2E0,3E0,5E0,2.1E1,2E0,-9.02156E-2,2E0,4E0,1E0,2E0,4.9497474E-2,4E0,4E0,6E0,1.0167306E-1,2.2E1,-8.293677E-2,6.576517E-2,8.596631E-2,4E0,1E0,3E0,8.929349E-2,-8.4678225E-2,2.6667875E-1,4.9497474E-2,9.269696E-2,9.768564E-2,4.9497474E-2,4E0,9.417279E-2,6E0,2.5556902E1,6E0,-9.708162E-2,4.6E1,-9.501784E-2,3E0,3.6260992E-2,-8.981707E-2,5E0,7E0,9.69876E-2,8.933379E-2,-8.729935E-2,-8.483592E-2,-8.915069E-2,-8.578049E-2,9.387625E-2,-9.041839E-2,1.10545576E-1,9.9277206E-2,-9.137735E-2,-8.949095E-2,9.984508E-2,-2.4851188E-2,9.51379E-3,3.8017724E-2,8.568315E-2,6.0886692E-2,4.7186356E-2,7.26775E-2,4.286314E-2,7.876324E-2],"split_indices":[1,4,4,4,4,0,1,4,0,0,0,4,0,0,4,0,0,10,4,0,4,0,4,0,0,0,4,0,1,0,0,6,10,0,0,10,0,0,4,10,0,0,4,0,0,0,0,4,4,0,0,0,0,0,0,0,0,0,0,0,0,0,0,0,0,0,0,0,0,0,0],"split_type":[0,0,0,0,0,0,0,0,0,0,0,0,0,0,0,0,0,0,0,0,0,0,0,0,0,0,0,0,0,0,0,0,0,0,0,0,0,0,0,0,0,0,0,0,0,0,0,0,0,0,0,0,0,0,0,0,0,0,0,0,0,0,0,0,0,0,0,0,0,0,0],"sum_hessian":[8.422758E5,5.7703456E5,2.6524122E5,2.5400422E5,3.2303034E5,7.110641E2,2.6453016E5,1.6767995E5,8.632427E4,1.9897497E5,1.2405538E5,2.8204182E1,6.8285986E2,1.054033E5,1.5912686E5,1.0690664E5,6.077331E4,1.08104E4,7.5513875E4,9.232937E3,1.8974203E5,3.7964668E3,1.20258914E5,1.0892544E1,1.7311638E1,4.6267974E3,1.007765E5,8.7515526E1,1.5903934E5,4.7726856E1,1.06858914E5,5.264397E3,5.550891E4,8.384194E3,2.426206E3,3.891914E4,3.6594734E4,7.193479E2,8.513588E3,2.0475633E4,1.692664E5,2.5717175E3,1.17687195E5,1.0493827E3,9.972712E4,5.348508E0,8.216702E1,5.751173E4,1.0152762E5,4.950748E3,3.13649E2,2.304351E4,3.24654E4,9.672834E3,2.9246307E4,9.185972E3,2.7408762E4,7.2945986E3,1.2189897E3,5.060297E3,1.5415335E4,7.62365E3,1.6164275E5,6.495408E4,5.2733117E4,8.592471E3,9.113465E4,7.42489E2,5.6769242E4,6.163606E2,1.0091126E5],"tree_param":{"num_deleted":"0","num_feature":"15","num_nodes":"71","size_leaf_vector":"1"}},{"base_weights":[-2.674473E-4,-6.19758E-1,1.3527267E0,-1.1603034E0,7.458176E-2,-1.6339476E0,1.3610034E0,-1.5316728E0,-7.698193E-1,-1.7069452E-1,5.86947E-1,-1.5849544E0,-8.636997E-2,1.1998448E0,1.4686623E0,-8.179535E-2,-1.3488008E0,-1.781828E-1,-1.2323778E0,5.592159E-1,-4.033005E-1,7.669085E-1,2.65763E-1,-8.623998E-2,-1.5115716E0,1.3836732E0,1.1616843E0,-8.2489125E-2,1.4703772E0,-1.0259243E0,-8.19188E-2,-4.2365324E-1,5.283435E-1,-1.5911819E0,-1.0068638E0,2.651291E-1,9.648903E-1,-9.5849794E-1,-1.07038215E-1,1.2993684E-1,8.343997E-1,-3.8145542E-1,3.4991345E-1,-2.8060636E-2,-1.5281291E0,1.1681533E0,1.4774784E0,-1.6217935E0,1.1709493E0,1.418992E0,1.5384414E0,-4.731096E-2,-8.217349E-2,1.5749717E-4,-4.206791E-2,3.115525E-2,-3.4815278E-3,-7.732861E-2,-8.5674755E-2,-3.0532403E-2,-7.723172E-2,4.1341346E-2,-3.8571132E-3,1.03078976E-1,3.144237E-2,-3.037549E-2,-6.483372E-2,1.6849061E-2,-2.5436271E-2,2.9597506E-2,-6.6201836E-3,3.4991816E-2,5.3360593E-2,1.4153837E-2,-2.8458163E-2,9.387597E-3,3.0124485E-2,-7.717773E-2,-3.850088E-2,5.934002E-2,-7.623777E-2,7.507854E-2,6.315255E-2,-8.6429454E-2,-7.617959E-2,3.069288E-2,5.9239693E-2,3.9850786E-2,7.120758E-2,4.6959843E-2,7.712713E-2],"categories":[],"categories_nodes":[],"categories_segments":[],"categories_sizes":[],"default_left":[0,0,0,0,0,0,0,0,0,0,0,0,0,0,0,0,0,0,0,0,0,0,0,0,0,0,0,0,0,0,0,0,0,0,0,0,0,0,0,0,0,0,0,0,0,0,0,0,0,0,0,0,0,0,0,0,0,0,0,0,0,0,0,0,0,0,0,0,0,0,0,0,0,0,0,0,0,0,0,0,0,0,0,0,0,0,0,0,0,0,0],"id":5,"left_children":[1,3,5,7,9,11,13,15,17,19,21,23,-1,25,27,-1,29,31,33,35,37,39,41,-1,43,45,47,-1,49,51,-1,53,55,57,59,61,63,65,67,69,71,73,75,-1,77,79,81,83,85,87,89,-1,-1,-1,-1,-1,-1,-1,-1,-1,-1,-1,-1,-1,-1,-1,-1,-1,-1,-1,-1,-1,-1,-1,-1,-1,-1,-1,-1,-1,-1,-1,-1,-1,-1,-1,-1,-1,-1,-1,-1],"loss_changes":[6.9836606E5,2.1450592E5,6.4709688E3,4.6599062E4,3.1439752E4,2.4389648E-1,4.5256562E3,3.1370312E3,4.286861E4,2.8724541E4,4.6810195E3,2.0726318E0,0E0,7.313125E2,8.3903125E2,0E0,5.5894297E3,1.1920934E4,7.1116562E3,4.8774746E3,2.1102928E4,2.231246E3,1.5842368E3,0E0,4.0997314E0,3.611289E2,2.2341094E3,0E0,5.4440625E2,1.3900898E3,0E0,9.094416E3,1.00439404E3,1.8214062E2,1.1501922E4,4.5574053E3,6.3308057E3,5.2977188E3,1.4921359E4,6.0302313E2,1.4693906E3,4.176735E2,1.0540559E3,0E0,2.3457642E0,2.755454E2,6.245703E1,5.682373E-2,6.6446875E2,2.8460938E2,1.6357812E2,0E0,0E0,0E0,0E0,0E0,0E0,0E0,0E0,0E0,0E0,0E0,0E0,0E0,0E0,0E0,0E0,0E0,0E0,0E0,0E0,0E0,0E0,0E0,0E0,0E0,0E0,0E0,0E0,0E0,0E0,0E0,0E0,0E0,0E0,0E0,0E0,0E0,0E0,0E0,0E0],"parents":[2147483647,0,0,1,1,2,2,3,3,4,4,5,5,6,6,7,7,8,8,9,9,10,10,11,11,13,13,14,14,16,16,17,17,18,18,19,19,20,20,21,21,22,22,24,24,25,25,26,26,28,28,29,29,31,31,32,32,33,33,34,34,35,35,36,36,37,37,38,38,39,39,40,40,41,41,42,42,44,44,45,45,46,46,47,47,48,48,49,49,50,50],"right_children":[2,4,6,8,10,12,14,16,18,20,22,24,-1,26,28,-1,30,32,34,36,38,40,42,-1,44,46,48,-1,50,52,-1,54,56,58,60,62,64,66,68,70,72,74,76,-1,78,80,82,84,86,88,90,-1,-1,-1,-1,-1,-1,-1,-1,-1,-1,-1,-1,-1,-1,-1,-1,-1,-1,-1,-1,-1,-1,-1,-1,-1,-1,-1,-1,-1,-1,-1,-1,-1,-1,-1,-1,-1,-1,-1,-1],"split_conditions":[1E0,8E0,3E0,3E0,3.2E1,3.6037E2,2E0,2E0,3E0,6E0,2.4451E2,1.3102E2,-8.636997E-2,2E0,4E0,-8.179535E-2,2E0,5E0,5E0,1.1E1,1.4E1,1.4491377E0,1.75E0,-8.623998E-2,1.3151E2,4E0,4E0,-8.2489125E-2,4E0,7.2627306E-1,-8.19188E-2,2E0,3.8603034E0,4E0,5E0,4E0,1E0,8E0,1.2E1,2.1E1,7.3E1,1.8E1,6.6E1,-2.8060636E-2,2.6667875E-1,5.9361684E-1,9.962049E-1,1.5991E2,5E0,5E0,9E0,-4.731096E-2,-8.217349E-2,1.5749717E-4,-4.206791E-2,3.115525E-2,-3.4815278E-3,-7.732861E-2,-8.5674755E-2,-3.0532403E-2,-7.723172E-2,4.1341346E-2,-3.8571132E-3,1.03078976E-1,3.144237E-2,-3.037549E-2,-6.483372E-2,1.6849061E-2,-2.5436271E-2,2.9597506E-2,-6.6201836E-3,3.4991816E-2,5.3360593E-2,1.4153837E-2,-2.8458163E-2,9.387597E-3,3.0124485E-2,-7.717773E-2,-3.850088E-2,5.934002E-2,-7.623777E-2,7.507854E-2,6.315255E-2,-8.6429454E-2,-7.617959E-2,3.069288E-2,5.9239693E-2,3.9850786E-2,7.120758E-2,4.6959843E-2,7.712713E-2],"split_indices":[1,4,4,4,4,3,1,4,9,9,2,11,0,9,4,0,9,4,4,4,4,6,6,0,11,4,4,0,1,6,0,9,6,9,9,9,13,9,9,9,4,9,4,0,6,6,6,11,4,4,4,0,0,0,0,0,0,0,0,0,0,0,0,0,0,0,0,0,0,0,0,0,0,0,0,0,0,0,0,0,0,0,0,0,0,0,0,0,0,0,0],"split_type":[0,0,0,0,0,0,0,0,0,0,0,0,0,0,0,0,0,0,0,0,0,0,0,0,0,0,0,0,0,0,0,0,0,0,0,0,0,0,0,0,0,0,0,0,0,0,0,0,0,0,0,0,0,0,0,0,0,0,0,0,0,0,0,0,0,0,0,0,0,0,0,0,0,0,0,0,0,0,0,0,0,0,0,0,0,0,0,0,0,0,0],"sum_hessian":[8.332043E5,5.715235E5,2.6168081E5,3.213507E5,2.5017284E5,7.2259686E2,2.6095822E5,1.6470495E5,1.5664572E5,1.6918306E5,8.098977E4,4.8654816E2,2.360487E2,1.0451654E5,1.5644167E5,1.049033E5,5.9801656E4,6.873352E4,8.7912195E4,4.0885086E4,1.2829798E5,5.190524E4,2.9084535E4,1.5923251E2,3.2731564E2,1.7960195E4,8.655634E4,8.542446E1,1.5635625E5,2.8277316E4,3.1524338E4,5.1011125E4,1.7722398E4,3.392666E4,5.3985535E4,2.3703521E4,1.7181566E4,4.4639914E4,8.365806E4,4.9732153E3,4.6932023E4,3.3458887E3,2.5738646E4,6.3059006E0,3.2100974E2,5.4509697E3,1.2509226E4,2.8654355E2,8.6269805E4,8.910765E4,6.72486E4,2.5047225E4,3.2300928E3,2.5231154E4,2.577997E4,1.5298203E4,2.424196E3,2.4870424E4,9.056237E3,3.1085123E4,2.2900412E4,8.974479E3,1.4729043E4,4.0286094E3,1.3152957E4,2.1906549E4,2.2733367E4,3.973522E4,4.3922848E4,1.8008416E3,3.172374E3,2.9744436E4,1.718759E4,7.3671045E2,2.6091782E3,1.5676198E4,1.0062448E4,3.134636E2,7.546151E0,5.4140767E3,3.68935E1,1.1239876E4,1.2693494E3,1.288246E2,1.5771893E2,2.0932039E3,8.41766E4,7.345538E2,8.837309E4,4.5883777E2,6.6789766E4],"tree_param":{"num_deleted":"0","num_feature":"15","num_nodes":"91","size_leaf_vector":"1"}},{"base_weights":[-6.502444E-5,-5.940295E-1,1.304728E0,-1.0182849E0,4.9793866E-2,1.1360561E0,1.4188912E0,-1.4109277E0,-8.360544E-1,-3.7213543E-1,3.612364E-1,1.1835474E0,1.0892235E0,1.3372284E0,1.465449E0,8.877566E-2,-1.4122908E0,-6.103104E-1,-9.700584E-1,2.711469E-1,-5.108588E-1,1.16831034E-1,6.560457E-1,1.0165187E0,1.2006788E0,1.1504669E0,1.0476676E0,1.1633731E0,1.3424048E0,1.4285334E0,1.505526E0,-1.4133935E0,9.0957634E-2,-7.8323686E-1,-2.2492734E-1,-1.2591608E0,-8.114304E-1,7.277857E-1,1.0206605E-1,-7.813057E-1,-2.867401E-1,5.6901616E-1,-6.0710616E-2,8.189782E-1,3.186828E-1,8.706755E-1,1.0741892E0,1.2347018E0,1.1643345E0,1.1116163E0,1.2589226E0,1.1534607E0,1.0115503E0,-4.588136E-2,1.1719948E0,1.3682379E0,1.3165839E0,9.628993E-1,1.4302965E0,1.2054754E0,1.5107646E0,-7.428555E-2,-7.027663E-2,-3.479232E-2,-5.244082E-2,-5.9722806E-3,-3.4115713E-2,-6.911924E-2,-5.695903E-2,-2.2417268E-2,-5.1446714E-2,2.7629962E-2,4.727764E-2,-3.6884833E-3,2.8436461E-2,-2.6281884E-2,-5.5573326E-2,1.6950393E-3,-2.5887845E-2,3.173789E-2,9.939182E-4,1.3796722E-2,-8.199695E-3,3.154057E-2,4.8821826E-2,1.0797086E-2,3.1701434E-2,4.1249376E-2,5.3744216E-2,5.2522656E-2,6.558058E-2,6.387489E-2,6.091339E-2,5.5572826E-2,6.1445385E-2,5.3306967E-2,5.8244973E-2,6.7417316E-2,5.915602E-2,5.801317E-2,3.8202576E-2,4.3831017E-2,5.132562E-2,5.925225E-2,3.976059E-2,6.419524E-2,6.8733744E-2,6.7762055E-2,6.445569E-2,5.136112E-2,2.9407436E-2,5.8136284E-2,7.159909E-2,5.016352E-2,6.466526E-2,7.423603E-2,7.652829E-2],"categories":[],"categories_nodes":[],"categories_segments":[],"categories_sizes":[],"default_left":[0,0,0,0,0,0,0,0,0,0,0,0,0,0,0,0,0,0,0,0,0,0,0,0,0,0,0,0,0,0,0,0,0,0,0,0,0,0,0,0,0,0,0,0,0,0,0,0,0,0,0,0,0,0,0,0,0,0,0,0,0,0,0,0,0,0,0,0,0,0,0,0,0,0,0,0,0,0,0,0,0,0,0,0,0,0,0,0,0,0,0,0,0,0,0,0,0,0,0,0,0,0,0,0,0,0,0,0,0,0,0,0,0,0,0,0,0],"id":6,"left_children":[1,3,5,7,9,11,13,15,17,19,21,23,25,27,29,-1,31,33,35,37,39,41,43,45,47,49,51,53,55,57,59,61,-1,63,65,67,69,71,73,75,77,79,81,83,85,87,89,91,93,95,97,99,101,-1,103,105,107,109,111,113,115,-1,-1,-1,-1,-1,-1,-1,-1,-1,-1,-1,-1,-1,-1,-1,-1,-1,-1,-1,-1,-1,-1,-1,-1,-1,-1,-1,-1,-1,-1,-1,-1,-1,-1,-1,-1,-1,-1,-1,-1,-1,-1,-1,-1,-1,-1,-1,-1,-1,-1,-1,-1,-1,-1,-1,-1],"loss_changes":[6.397843E5,1.5495239E5,4.9708125E3,2.4465906E4,2.9610719E4,2.3032812E2,5.8328125E2,4.733125E2,7.064547E3,8.539731E3,9.340965E3,1.4661719E2,1.321875E2,4.8523438E1,1.4264062E2,0E0,3.8860938E2,5.797824E3,6.7198906E3,1.310548E3,4.770994E3,5.690602E3,3.2295938E3,3.941455E1,5.634375E1,8.7734375E1,1.1816797E2,3.026001E1,3.4148438E1,4.03125E1,7.178906E1,5.91875E1,0E0,1.3929062E3,1.300022E3,7.658125E2,7.4730625E3,1.7431812E2,1.01677966E3,3.0103574E3,3.1887952E3,7.213789E2,1.7697673E3,1.173209E3,6.1985767E2,1.1721802E1,1.7827148E1,1.52265625E1,7.593555E1,3.6398438E1,3.6015625E1,1.9995117E1,4.6015625E1,0E0,6.8203125E0,1.26875E1,2.6863281E1,3.9568787E0,2.1007812E1,1.2890137E1,2.1257812E1,0E0,0E0,0E0,0E0,0E0,0E0,0E0,0E0,0E0,0E0,0E0,0E0,0E0,0E0,0E0,0E0,0E0,0E0,0E0,0E0,0E0,0E0,0E0,0E0,0E0,0E0,0E0,0E0,0E0,0E0,0E0,0E0,0E0,0E0,0E0,0E0,0E0,0E0,0E0,0E0,0E0,0E0,0E0,0E0,0E0,0E0,0E0,0E0,0E0,0E0,0E0,0E0,0E0,0E0,0E0,0E0],"parents":[2147483647,0,0,1,1,2,2,3,3,4,4,5,5,6,6,7,7,8,8,9,9,10,10,11,11,12,12,13,13,14,14,16,16,17,17,18,18,19,19,20,20,21,21,22,22,23,23,24,24,25,25,26,26,27,27,28,28,29,29,30,30,31,31,33,33,34,34,35,35,36,36,37,37,38,38,39,39,40,40,41,41,42,42,43,43,44,44,45,45,46,46,47,47,48,48,49,49,50,50,51,51,52,52,54,54,55,55,56,56,57,57,58,58,59,59,60,60],"right_children":[2,4,6,8,10,12,14,16,18,20,22,24,26,28,30,-1,32,34,36,38,40,42,44,46,48,50,52,54,56,58,60,62,-1,64,66,68,70,72,74,76,78,80,82,84,86,88,90,92,94,96,98,100,102,-1,104,106,108,110,112,114,116,-1,-1,-1,-1,-1,-1,-1,-1,-1,-1,-1,-1,-1,-1,-1,-1,-1,-1,-1,-1,-1,-1,-1,-1,-1,-1,-1,-1,-1,-1,-1,-1,-1,-1,-1,-1,-1,-1,-1,-1,-1,-1,-1,-1,-1,-1,-1,-1,-1,-1,-1,-1,-1,-1,-1,-1],"split_conditions":[1E0,9E0,2E0,2E0,3E0,9.2462715E1,3E0,1E0,1.6258425E1,6E0,3.6E1,8.699E1,2.6744E2,7.952E1,5E0,8.877566E-2,4.9497474E-2,4E0,4E0,4E0,1.6E1,1.2467667E2,2.60615E2,3.859E1,3E0,6E1,5E0,8.11E0,8E0,2E0,5E0,2.806E1,9.0957634E-2,2E0,4E0,3E0,4E0,1.1E1,1.3E1,9E0,9.7794014E1,1.9E1,8E0,5E0,9.6E1,2E0,2.6E1,1.3352E2,3E0,2.96E1,1.6187E2,1.19797E3,2E0,-4.588136E-2,1.8253176E1,1.0268E2,2.0039E2,3.8583E2,4.373E1,3E0,7E0,-7.428555E-2,-7.027663E-2,-3.479232E-2,-5.244082E-2,-5.9722806E-3,-3.4115713E-2,-6.911924E-2,-5.695903E-2,-2.2417268E-2,-5.1446714E-2,2.7629962E-2,4.727764E-2,-3.6884833E-3,2.8436461E-2,-2.6281884E-2,-5.5573326E-2,1.6950393E-3,-2.5887845E-2,3.173789E-2,9.939182E-4,1.3796722E-2,-8.199695E-3,3.154057E-2,4.8821826E-2,1.0797086E-2,3.1701434E-2,4.1249376E-2,5.3744216E-2,5.2522656E-2,6.558058E-2,6.387489E-2,6.091339E-2,5.5572826E-2,6.1445385E-2,5.3306967E-2,5.8244973E-2,6.7417316E-2,5.915602E-2,5.801317E-2,3.8202576E-2,4.3831017E-2,5.132562E-2,5.925225E-2,3.976059E-2,6.419524E-2,6.8733744E-2,6.7762055E-2,6.445569E-2,5.136112E-2,2.9407436E-2,5.8136284E-2,7.159909E-2,5.016352E-2,6.466526E-2,7.423603E-2,7.652829E-2],"split_indices":[1,0,1,0,7,10,1,0,10,9,0,3,2,3,1,0,10,0,0,9,0,2,2,3,9,0,9,3,9,0,0,11,0,9,9,0,9,0,0,9,10,9,9,7,0,8,0,11,8,11,2,11,7,0,10,2,2,2,3,0,1,0,0,0,0,0,0,0,0,0,0,0,0,0,0,0,0,0,0,0,0,0,0,0,0,0,0,0,0,0,0,0,0,0,0,0,0,0,0,0,0,0,0,0,0,0,0,0,0,0,0,0,0,0,0,0,0],"split_type":[0,0,0,0,0,0,0,0,0,0,0,0,0,0,0,0,0,0,0,0,0,0,0,0,0,0,0,0,0,0,0,0,0,0,0,0,0,0,0,0,0,0,0,0,0,0,0,0,0,0,0,0,0,0,0,0,0,0,0,0,0,0,0,0,0,0,0,0,0,0,0,0,0,0,0,0,0,0,0,0,0,0,0,0,0,0,0,0,0,0,0,0,0,0,0,0,0,0,0,0,0,0,0,0,0,0,0,0,0,0,0,0,0,0,0,0,0],"sum_hessian":[8.2552544E5,5.672871E5,2.5823833E5,3.419527E5,2.2533439E5,1.0423971E5,1.5399862E5,1.0839413E5,2.3355856E5,9.569301E4,1.2964139E5,5.1742785E4,5.2496926E4,5.592955E4,9.806907E4,4.5765152E1,1.0834837E5,8.700151E4,1.4655706E5,1.6975096E4,7.871791E4,7.088086E4,5.876053E4,4.8195293E3,4.6923254E4,2.1209732E4,3.1287193E4,1.6242107E3,5.430534E4,5.106838E4,4.700069E4,1.08312E5,3.6365112E1,6.005344E4,2.694807E4,5.1921547E4,9.463551E4,4.5859272E3,1.2389168E4,3.567069E4,4.304722E4,1.9983291E4,5.089757E4,3.9622668E4,1.9137861E4,1.370783E3,3.4487466E3,2.421719E4,2.2706066E4,1.5624827E4,5.5849053E3,7.9542397E3,2.3332953E4,6.218597E0,1.6179922E3,2.711845E4,2.718689E4,1.9491582E2,5.087346E4,8.107997E2,4.618989E4,1.0599515E4,9.7712484E4,4.5188055E4,1.4865387E4,2.1899197E4,5.0488726E3,2.56089E4,2.6312645E4,3.545426E4,5.9181246E4,2.543645E3,2.0422821E3,8.999021E3,3.3901465E3,2.0104889E4,1.5565804E4,1.802699E4,2.5020229E4,1.7846418E4,2.1368723E3,1.1948753E4,3.8948816E4,1.8053686E4,2.1568984E4,1.4436415E4,4.701447E3,1.1246849E3,2.4609802E2,3.1406116E3,3.0813486E2,6.6963125E3,1.7520877E4,1.2494383E4,1.0211684E4,8.442276E3,7.1825513E3,2.5539329E3,3.0309722E3,7.8154746E3,1.3876514E2,2.3356763E3,2.0997277E4,1.561498E3,5.6494152E1,1.9384586E3,2.5179992E4,1.1272174E4,1.5914716E4,1.6464743E2,3.0268383E1,3.2309665E2,5.0550367E4,2.496371E2,5.611626E2,1.998509E4,2.62048E4],"tree_param":{"num_deleted":"0","num_feature":"15","num_nodes":"117","size_leaf_vector":"1"}},{"base_weights":[1.4838856E-3,-5.642943E-1,1.2596549E0,-9.7629434E-1,5.36278E-2,1.2115214E0,1.3005452E0,-1.3668296E0,-7.971449E-1,-3.4651852E-1,3.4901977E-1,1.057776E0,1.2277683E0,1.2847178E0,1.3558404E0,-1.3766971E0,9.020806E-2,-5.782563E-1,-9.3293226E-1,2.605663E-1,-4.7762147E-1,1.0832055E-1,6.2487215E-1,9.4569796E-1,1.1215171E0,1.2580252E0,1.1901889E0,1.2939687E0,1.2347575E0,1.3943113E0,1.3162441E0,8.527085E-2,-1.3779747E0,-7.45762E-1,-2.193455E-1,-1.2170346E0,-7.7888274E-1,-2.515746E-1,4.816075E-1,-9.7357005E-1,-3.20871E-1,5.307214E-1,-6.544167E-2,8.631391E-1,4.1076037E-1,5.802448E-1,9.7041136E-1,9.2655253E-1,1.1426893E0,1.2183883E0,1.3009428E0,1.0991657E0,1.2148484E0,1.2833349E0,1.317167E0,1.1490183E0,1.2546413E0,1.2826082E0,1.4068E0,1.2278512E0,1.3275878E0,-6.893667E-2,8.890937E-2,-3.2952663E-2,-4.9203258E-2,-5.6476197E-3,-3.2472145E-2,-6.72512E-2,-5.4675955E-2,-2.1574875E-2,-4.932982E-2,1.3835007E-2,-2.2047045E-2,4.3471497E-2,1.6993642E-2,-3.722333E-2,-5.6988418E-2,-8.0630736E-4,-2.634916E-2,2.9528378E-2,-6.1437435E-4,1.7514046E-2,-7.4488125E-3,3.4317207E-2,5.095702E-2,1.5163011E-2,3.632319E-2,3.0983556E-2,1.4867892E-3,4.868367E-2,-5.154268E-2,4.6855353E-2,-7.873416E-3,6.244395E-2,5.6072917E-2,5.7798218E-2,6.1575275E-2,6.5392755E-2,6.0859162E-2,5.8750283E-2,4.872918E-2,6.1023522E-2,4.6703666E-2,6.572841E-2,6.331651E-2,6.376507E-2,6.637761E-2,1.0616018E-2,5.7684958E-2,6.63711E-2,6.1995704E-2,5.5812657E-2,6.506079E-2,6.869682E-2,7.128152E-2,6.3412845E-2,5.2727915E-2,6.914823E-2,6.5721564E-2],"categories":[],"categories_nodes":[],"categories_segments":[],"categories_sizes":[],"default_left":[0,0,0,0,0,0,0,0,0,0,0,0,0,0,0,0,0,0,0,0,0,0,0,0,0,0,0,0,0,0,0,0,0,0,0,0,0,0,0,0,0,0,0,0,0,0,0,0,0,0,0,0,0,0,0,0,0,0,0,0,0,0,0,0,0,0,0,0,0,0,0,0,0,0,0,0,0,0,0,0,0,0,0,0,0,0,0,0,0,0,0,0,0,0,0,0,0,0,0,0,0,0,0,0,0,0,0,0,0,0,0,0,0,0,0,0,0,0,0],"id":7,"left_children":[1,3,5,7,9,11,13,15,17,19,21,23,25,27,29,31,-1,33,35,37,39,41,43,45,47,49,51,53,55,57,59,-1,61,63,65,67,69,71,73,75,77,79,81,83,85,87,89,91,93,95,97,99,101,103,105,107,109,111,113,115,117,-1,-1,-1,-1,-1,-1,-1,-1,-1,-1,-1,-1,-1,-1,-1,-1,-1,-1,-1,-1,-1,-1,-1,-1,-1,-1,-1,-1,-1,-1,-1,-1,-1,-1,-1,-1,-1,-1,-1,-1,-1,-1,-1,-1,-1,-1,-1,-1,-1,-1,-1,-1,-1,-1,-1,-1,-1,-1],"loss_changes":[5.821719E5,1.4362289E5,4.9746875E2,2.3679562E4,2.6675115E4,2.8957812E2,1.1803125E2,3.3328906E3,6.8958906E3,7.628449E3,8.620473E3,7.83584E1,1.18109375E2,4.74375E1,4.435547E1,4.20125E2,0E0,5.340588E3,6.266047E3,1.9271694E3,6.127246E3,5.089156E3,3.0858984E3,3.5839844E1,2.8039062E1,9.7453125E1,1.0399219E2,2.025E1,2.6765625E1,1.9484375E1,1.3207031E1,0E0,2.5632812E2,1.2507148E3,1.2934479E3,7.941719E2,6.699492E3,5.135819E2,6.53209E2,7.1972266E2,3.7620088E3,6.568115E2,1.7060934E3,7.8883203E2,1.0811699E3,5.5410004E0,2.5736816E1,8.247742E0,1.27890625E1,2.3195312E1,1.4375E1,9.346484E1,5.7039062E1,3.0859375E1,1.0324219E1,1.3447266E1,1.2603516E1,3.1533203E0,6.3535156E0,1.0516113E1,7.6210938E0,0E0,0E0,0E0,0E0,0E0,0E0,0E0,0E0,0E0,0E0,0E0,0E0,0E0,0E0,0E0,0E0,0E0,0E0,0E0,0E0,0E0,0E0,0E0,0E0,0E0,0E0,0E0,0E0,0E0,0E0,0E0,0E0,0E0,0E0,0E0,0E0,0E0,0E0,0E0,0E0,0E0,0E0,0E0,0E0,0E0,0E0,0E0,0E0,0E0,0E0,0E0,0E0,0E0,0E0,0E0,0E0,0E0,0E0],"parents":[2147483647,0,0,1,1,2,2,3,3,4,4,5,5,6,6,7,7,8,8,9,9,10,10,11,11,12,12,13,13,14,14,15,15,17,17,18,18,19,19,20,20,21,21,22,22,23,23,24,24,25,25,26,26,27,27,28,28,29,29,30,30,32,32,33,33,34,34,35,35,36,36,37,37,38,38,39,39,40,40,41,41,42,42,43,43,44,44,45,45,46,46,47,47,48,48,49,49,50,50,51,51,52,52,53,53,54,54,55,55,56,56,57,57,58,58,59,59,60,60],"right_children":[2,4,6,8,10,12,14,16,18,20,22,24,26,28,30,32,-1,34,36,38,40,42,44,46,48,50,52,54,56,58,60,-1,62,64,66,68,70,72,74,76,78,80,82,84,86,88,90,92,94,96,98,100,102,104,106,108,110,112,114,116,118,-1,-1,-1,-1,-1,-1,-1,-1,-1,-1,-1,-1,-1,-1,-1,-1,-1,-1,-1,-1,-1,-1,-1,-1,-1,-1,-1,-1,-1,-1,-1,-1,-1,-1,-1,-1,-1,-1,-1,-1,-1,-1,-1,-1,-1,-1,-1,-1,-1,-1,-1,-1,-1,-1,-1,-1,-1,-1],"split_conditions":[1E0,9E0,3E0,2E0,3E0,8.391E1,7.9E1,2.6667875E-1,1.7634914E1,6E0,3.5E1,2.6667875E-1,7.342409E1,3.8805862E2,2.2333E2,1E0,9.020806E-2,4E0,4E0,3.5355338E-1,3.5355338E-1,1.280668E2,1.8016E2,1.734E1,2.626E1,2.6667875E-1,4E-1,5E0,1.5E1,5E0,4E0,8.527085E-2,4.9497474E-2,4.9497474E-2,4E0,3E0,4E0,4E0,4E0,8.6239655E1,9.645891E1,1.9E1,7E0,5E0,9.6E1,7.049189E0,8E0,7E0,4.0293956E0,2E0,5.196152E0,5E0,6.740875E2,8E0,3E0,9.5228E2,1.1E1,2E0,6E0,4.8E1,3.9E1,-6.893667E-2,8.890937E-2,-3.2952663E-2,-4.9203258E-2,-5.6476197E-3,-3.2472145E-2,-6.72512E-2,-5.4675955E-2,-2.1574875E-2,-4.932982E-2,1.3835007E-2,-2.2047045E-2,4.3471497E-2,1.6993642E-2,-3.722333E-2,-5.6988418E-2,-8.0630736E-4,-2.634916E-2,2.9528378E-2,-6.1437435E-4,1.7514046E-2,-7.4488125E-3,3.4317207E-2,5.095702E-2,1.5163011E-2,3.632319E-2,3.0983556E-2,1.4867892E-3,4.868367E-2,-5.154268E-2,4.6855353E-2,-7.873416E-3,6.244395E-2,5.6072917E-2,5.7798218E-2,6.1575275E-2,6.5392755E-2,6.0859162E-2,5.8750283E-2,4.872918E-2,6.1023522E-2,4.6703666E-2,6.572841E-2,6.331651E-2,6.376507E-2,6.637761E-2,1.0616018E-2,5.7684958E-2,6.63711E-2,6.1995704E-2,5.5812657E-2,6.506079E-2,6.869682E-2,7.128152E-2,6.3412845E-2,5.2727915E-2,6.914823E-2,6.5721564E-2],"split_indices":[12,0,7,0,7,2,0,6,10,9,0,6,10,10,2,0,0,0,0,6,6,2,2,2,2,6,6,7,0,8,8,0,10,10,9,0,9,9,9,10,10,9,9,7,0,10,8,6,10,0,6,9,10,9,8,3,9,8,7,9,9,0,0,0,0,0,0,0,0,0,0,0,0,0,0,0,0,0,0,0,0,0,0,0,0,0,0,0,0,0,0,0,0,0,0,0,0,0,0,0,0,0,0,0,0,0,0,0,0,0,0,0,0,0,0,0,0,0,0],"split_type":[0,0,0,0,0,0,0,0,0,0,0,0,0,0,0,0,0,0,0,0,0,0,0,0,0,0,0,0,0,0,0,0,0,0,0,0,0,0,0,0,0,0,0,0,0,0,0,0,0,0,0,0,0,0,0,0,0,0,0,0,0,0,0,0,0,0,0,0,0,0,0,0,0,0,0,0,0,0,0,0,0,0,0,0,0,0,0,0,0,0,0,0,0,0,0,0,0,0,0,0,0,0,0,0,0,0,0,0,0,0,0,0,0,0,0,0,0,0,0],"sum_hessian":[8.178324E5,5.64146E5,2.536864E5,3.3847025E5,2.2567575E5,1.16538305E5,1.3714811E5,1.0643689E5,2.3203334E5,9.584325E4,1.298325E5,1.1144994E4,1.05393305E5,1.06647695E5,3.0500412E4,1.061073E5,3.295889E2,8.883604E4,1.4319731E5,1.7021555E4,7.8821695E4,6.933498E4,6.0497527E4,4.046792E3,7.0982026E3,5.8365523E4,4.7027785E4,8.996288E4,1.6684814E4,1.5451405E4,1.5049007E4,4.3381004E1,1.0606392E5,6.056749E4,2.826855E4,5.0343996E4,9.285331E4,5.131514E3,1.1890041E4,1.8928207E4,5.9893492E4,2.0208467E4,4.9126508E4,2.863195E4,3.1865576E4,2.58133E2,3.788659E3,7.001728E2,6.39803E3,3.0359014E4,2.8006508E4,1.0035264E4,3.699252E4,6.1728168E4,2.8234713E4,3.152964E3,1.353185E4,1.5650298E3,1.3886376E4,1.7250504E3,1.3323956E4,1.0603903E5,2.4889519E1,4.441197E4,1.61555205E4,2.2663725E4,5.6048257E3,2.4718969E4,2.562503E4,3.474632E4,5.8106992E4,1.3538083E3,3.7777058E3,3.1807773E3,8.709264E3,7.9606177E3,1.0967589E4,2.4165475E4,3.5728016E4,1.8202438E4,2.006029E3,8.219002E3,4.0907508E4,1.342432E4,1.520763E4,2.3772932E4,8.0926445E3,2.4059482E2,1.7538187E1,3.7830562E3,5.602749E0,6.93647E2,6.52585E0,1.0556332E3,5.342397E3,5.288422E3,2.5070592E4,2.5856848E4,2.1496597E3,6.232164E3,3.8030996E3,3.626272E4,7.298011E2,2.1731152E4,3.9997016E4,5.638362E3,2.2596352E4,1.6014378E1,3.1369497E3,2.2612258E3,1.1270624E4,1.6412051E2,1.4009093E3,5.087215E3,8.799161E3,1.3932897E3,3.3176077E2,2.5364287E3,1.0787527E4],"tree_param":{"num_deleted":"0","num_feature":"15","num_nodes":"119","size_leaf_vector":"1"}},{"base_weights":[1.5074239E-3,-5.4128987E-1,1.2173693E0,-1.188396E0,-5.6295834E-2,-1.67763E0,1.2256297E0,-1.4051318E0,-7.813616E-1,2.0706856E0,-1.2021085E-1,2.2269963E-1,-8.803152E-2,1.1012663E0,1.2549853E0,-1.509419E0,-1.2256687E0,1.8740015E0,-1.1724793E0,2.018297E0,2.1755855E0,-5.9123E-1,2.5886163E-1,-8.108517E-2,6.60438E-2,1.141338E0,-1.3304068E-1,1.4579539E0,1.2356023E0,8.218684E-2,-7.553415E-2,2.0093946E0,-1.5561786E0,9.1695406E-2,1.0108004E-1,-1.5834885E0,-7.456169E-1,2.04219E0,9.422043E-2,2.1969213E0,9.956539E-2,-1.6630555E0,-4.120952E-1,2.060123E0,1.9884126E-1,1.0879359E0,1.4374793E0,1.0687789E0,1.4613822E0,-1.3285474E-1,1.2449795E0,1.0133999E-1,8.6741954E-2,-8.0325864E-2,-7.596335E-2,-8.339032E-2,-7.7737175E-2,9.504407E-2,-8.2984164E-2,9.273885E-2,1.03252605E-1,1.0869908E-1,1.14265226E-1,-8.6017095E-2,-8.080875E-2,9.771807E-2,-2.8704563E-2,9.889036E-2,1.05256714E-1,-9.367516E-2,1.3173208E-2,5.703792E-2,-1.3325821E-1,7.4139394E-2,6.8298854E-2,5.688967E-2,1.2044409E-2,7.311459E-2,4.8036035E-2,4.344237E-2,6.2938E-2],"categories":[],"categories_nodes":[],"categories_segments":[],"categories_sizes":[],"default_left":[0,0,0,0,0,0,0,0,0,0,0,0,0,0,0,0,0,0,0,0,0,0,0,0,0,0,0,0,0,0,0,0,0,0,0,0,0,0,0,0,0,0,0,0,0,0,0,0,0,0,0,0,0,0,0,0,0,0,0,0,0,0,0,0,0,0,0,0,0,0,0,0,0,0,0,0,0,0,0,0,0],"id":8,"left_children":[1,3,5,7,9,11,13,15,17,19,21,23,-1,25,27,29,31,33,35,37,39,41,43,-1,-1,45,-1,47,49,-1,-1,51,53,-1,-1,55,57,59,-1,61,-1,63,65,67,69,71,73,75,77,-1,79,-1,-1,-1,-1,-1,-1,-1,-1,-1,-1,-1,-1,-1,-1,-1,-1,-1,-1,-1,-1,-1,-1,-1,-1,-1,-1,-1,-1,-1,-1],"loss_changes":[5.340704E5,1.7558623E5,5.9748438E3,2.1142938E4,4.347488E4,1.1269397E2,9.07625E2,2.925E3,8.649498E4,4.645703E1,5.5434062E4,6.407722E1,0E0,7.1743516E3,7.90625E2,3.966875E2,6.146947E4,5.9179688E1,1.2734133E4,1.57109375E1,7.370117E0,2.6580418E4,1.859727E4,0E0,0E0,7.4258203E2,0E0,2.1609375E1,6.7170312E3,0E0,0E0,2.1572266E1,9.415625E1,0E0,0E0,8.671875E1,8.6147336E4,1.8398438E1,0E0,1.875E-1,0E0,5.0128906E1,4.5474758E4,1.5980469E1,2.2295193E4,7.909707E3,2.097461E1,8.575378E0,6.28125E0,0E0,9.4978125E2,0E0,0E0,0E0,0E0,0E0,0E0,0E0,0E0,0E0,0E0,0E0,0E0,0E0,0E0,0E0,0E0,0E0,0E0,0E0,0E0,0E0,0E0,0E0,0E0,0E0,0E0,0E0,0E0,0E0,0E0],"parents":[2147483647,0,0,1,1,2,2,3,3,4,4,5,5,6,6,7,7,8,8,9,9,10,10,11,11,13,13,14,14,15,15,16,16,17,17,18,18,19,19,20,20,21,21,22,22,25,25,27,27,28,28,31,31,32,32,35,35,36,36,37,37,39,39,41,41,42,42,43,43,44,44,45,45,46,46,47,47,48,48,50,50],"right_children":[2,4,6,8,10,12,14,16,18,20,22,24,-1,26,28,30,32,34,36,38,40,42,44,-1,-1,46,-1,48,50,-1,-1,52,54,-1,-1,56,58,60,-1,62,-1,64,66,68,70,72,74,76,78,-1,80,-1,-1,-1,-1,-1,-1,-1,-1,-1,-1,-1,-1,-1,-1,-1,-1,-1,-1,-1,-1,-1,-1,-1,-1,-1,-1,-1,-1,-1,-1],"split_conditions":[1E0,5E0,3E0,3E0,5E0,1E0,9E0,2E0,3E0,3E0,1.4E1,2E0,-8.803152E-2,7E0,8E0,1E0,2E0,2E0,4E0,6E0,6E0,6E0,1.4E1,-8.108517E-2,6.60438E-2,8E0,-1.3304068E-1,3E0,1E1,8.218684E-2,-7.553415E-2,2.6667875E-1,4.9497474E-2,9.1695406E-2,1.0108004E-1,4.9497474E-2,4E0,4E0,9.422043E-2,4E0,9.956539E-2,4E0,6E0,6E0,1.5E1,6E0,6E0,1.60625E1,3.4E1,-1.3285474E-1,1.2E1,1.0133999E-1,8.6741954E-2,-8.0325864E-2,-7.596335E-2,-8.339032E-2,-7.7737175E-2,9.504407E-2,-8.2984164E-2,9.273885E-2,1.03252605E-1,1.0869908E-1,1.14265226E-1,-8.6017095E-2,-8.080875E-2,9.771807E-2,-2.8704563E-2,9.889036E-2,1.05256714E-1,-9.367516E-2,1.3173208E-2,5.703792E-2,-1.3325821E-1,7.4139394E-2,6.8298854E-2,5.688967E-2,1.2044409E-2,7.311459E-2,4.8036035E-2,4.344237E-2,6.2938E-2],"split_indices":[12,4,4,4,0,0,4,4,0,9,4,4,0,0,0,0,0,9,4,4,4,4,0,0,0,4,0,0,4,0,0,6,10,0,0,10,0,0,0,9,0,9,0,9,4,0,0,5,4,0,4,0,0,0,0,0,0,0,0,0,0,0,0,0,0,0,0,0,0,0,0,0,0,0,0,0,0,0,0,0,0],"split_type":[0,0,0,0,0,0,0,0,0,0,0,0,0,0,0,0,0,0,0,0,0,0,0,0,0,0,0,0,0,0,0,0,0,0,0,0,0,0,0,0,0,0,0,0,0,0,0,0,0,0,0,0,0,0,0,0,0,0,0,0,0,0,0,0,0,0,0,0,0,0,0,0,0,0,0,0,0,0,0,0,0],"sum_hessian":[8.0923644E5,5.594719E5,2.497646E5,2.3967819E5,3.197937E5,7.100218E2,2.4905458E5,1.5639762E5,8.3280555E4,9.328377E3,3.104653E5,2.9592869E1,6.8042896E2,4.7569957E4,2.0148462E5,9.891153E4,5.7486098E4,1.0691325E4,7.2589234E4,6.235474E3,3.0929033E3,1.3844242E5,1.7202289E5,1.0832219E1,1.876065E1,4.706932E4,5.00635E2,1.7557152E4,1.8392747E5,3.9082237E1,9.8872445E4,5.32816E3,5.2157938E4,8.418624E3,2.272701E3,3.697984E4,3.5609395E4,5.2784976E3,9.5697656E2,2.7616904E3,3.3121298E2,1.9823387E4,1.1861903E5,5.546057E3,1.6647683E5,3.9882465E4,7.186857E3,1.5629605E2,1.7400855E4,4.4129886E2,1.8348617E5,5.0041846E3,3.239758E2,2.2046498E4,3.0111441E4,9.38635E3,2.7593488E4,9.14132E3,2.6468074E4,5.833062E2,4.6951914E3,2.2138276E3,5.478628E2,8.904522E3,1.0918863E4,7.599084E3,1.11019945E5,1.9772578E3,3.5687993E3,5.033445E3,1.6144338E5,3.932965E4,5.5281714E2,4.386281E3,2.8005762E3,1.4381247E2,1.2483583E1,1.7367184E4,3.36726E1,6.4873433E3,1.7699883E5],"tree_param":{"num_deleted":"0","num_feature":"15","num_nodes":"81","size_leaf_vector":"1"}},{"base_weights":[-7.7264E-5,-5.220531E-1,1.1780455E0,-1.1538166E0,-5.6858934E-2,-8.038232E-2,1.1861204E0,-1.367521E0,-7.550541E-1,-3.0118436E-1,4.1765767E-1,1.0217832E0,1.2983168E0,-7.3611595E-2,-1.1880485E0,-3.159368E-1,-1.4387597E0,3.92618E-1,-4.9814633E-1,1.555826E-1,6.1580116E-1,1.2118014E0,9.830059E-1,-1.6504272E0,1.300137E0,-8.79068E-1,-7.397392E-2,6.457326E-2,-6.9708407E-1,-1.3994333E0,-7.730558E-2,9.21413E-2,7.952155E-1,-9.700733E-1,-2.1330296E-1,6.096061E-1,-1.0080082E-1,7.775293E-1,2.9912132E-1,9.733348E-1,1.3145959E0,-1.6779313E0,9.926549E-1,-1.0226105E0,-8.9953125E-2,1.2458131E0,1.3729502E0,-4.000356E-2,-7.544031E-2,1.0327746E-2,-4.4042327E-2,-5.0612967E-2,-1.2845595E-2,-7.508717E-2,-6.1896294E-2,2.2957636E-2,-1.8048082E-2,4.121385E-2,-3.2515995E-2,-2.7660122E-2,-5.871972E-2,1.2566014E-2,-3.183448E-2,4.9774516E-2,2.1740152E-2,-2.2876142E-2,1.1507599E-2,4.8868746E-2,3.2867804E-2,3.85509E-2,1.18959565E-2,4.9551014E-2,-7.94546E-2,6.6931605E-2,5.4922856E-2,-8.973369E-2,-7.897271E-2,2.3449002E-2,5.0291598E-2,-8.431552E-2,2.3078827E-2,3.036238E-2,6.257392E-2,3.8617384E-2,6.8856195E-2],"categories":[],"categories_nodes":[],"categories_segments":[],"categories_sizes":[],"default_left":[0,0,0,0,0,0,0,0,0,0,0,0,0,0,0,0,0,0,0,0,0,0,0,0,0,0,0,0,0,0,0,0,0,0,0,0,0,0,0,0,0,0,0,0,0,0,0,0,0,0,0,0,0,0,0,0,0,0,0,0,0,0,0,0,0,0,0,0,0,0,0,0,0,0,0,0,0,0,0,0,0,0,0,0,0],"id":9,"left_children":[1,3,5,7,9,-1,11,13,15,17,19,21,23,-1,25,27,29,31,33,35,37,39,41,43,45,47,-1,49,51,53,-1,55,57,59,61,63,65,67,69,71,73,75,77,79,-1,81,83,-1,-1,-1,-1,-1,-1,-1,-1,-1,-1,-1,-1,-1,-1,-1,-1,-1,-1,-1,-1,-1,-1,-1,-1,-1,-1,-1,-1,-1,-1,-1,-1,-1,-1,-1,-1,-1,-1],"loss_changes":[4.9100506E5,1.6261097E5,5.5160938E3,1.9994344E4,3.694445E4,0E0,4.505375E3,2.8689062E3,2.4580328E4,2.8745398E4,5.6241406E3,7.29375E2,7.8175E2,0E0,5.0675938E3,7.2307705E3,1.3273438E2,5.626524E3,2.2023992E4,5.4283955E3,3.1585E3,4.1041992E2,2.116625E3,6.278137E0,5.722656E2,1.3580195E3,0E0,3.3491746E3,3.4550596E3,3.8528125E2,0E0,4.4295044E3,8.3562305E2,5.251789E3,2.0099287E4,1.1346709E3,3.518743E3,9.7966797E2,6.019437E2,2.3109424E2,5.9277344E1,2.5354004E-1,5.657578E2,2.0284513E1,0E0,2.998672E2,1.5417969E2,0E0,0E0,0E0,0E0,0E0,0E0,0E0,0E0,0E0,0E0,0E0,0E0,0E0,0E0,0E0,0E0,0E0,0E0,0E0,0E0,0E0,0E0,0E0,0E0,0E0,0E0,0E0,0E0,0E0,0E0,0E0,0E0,0E0,0E0,0E0,0E0,0E0,0E0],"parents":[2147483647,0,0,1,1,2,2,3,3,4,4,6,6,7,7,8,8,9,9,10,10,11,11,12,12,14,14,15,15,16,16,17,17,18,18,19,19,20,20,21,21,22,22,23,23,24,24,25,25,27,27,28,28,29,29,31,31,32,32,33,33,34,34,35,35,36,36,37,37,38,38,39,39,40,40,41,41,42,42,43,43,45,45,46,46],"right_children":[2,4,6,8,10,-1,12,14,16,18,20,22,24,-1,26,28,30,32,34,36,38,40,42,44,46,48,-1,50,52,54,-1,56,58,60,62,64,66,68,70,72,74,76,78,80,-1,82,84,-1,-1,-1,-1,-1,-1,-1,-1,-1,-1,-1,-1,-1,-1,-1,-1,-1,-1,-1,-1,-1,-1,-1,-1,-1,-1,-1,-1,-1,-1,-1,-1,-1,-1,-1,-1,-1,-1],"split_conditions":[1E0,5E0,3E0,3E0,2.4E1,-8.038232E-2,2E0,2E0,3E0,4E0,4E0,2E0,4E0,-7.3611595E-2,2E0,2E0,4E0,7E0,1E1,1.7E1,2.6368332E2,4E0,4E0,1.12695625E2,4E0,7.2627306E-1,-7.397392E-2,1.024695E0,4E0,4E0,-7.730558E-2,3E0,5E0,5E0,9E0,1.1E1,4.1E1,1.1455E2,1.4E1,5.9361684E-1,9.962049E-1,1.493E2,5E0,9.627E1,-8.9953125E-2,5E0,9E0,-4.000356E-2,-7.544031E-2,1.0327746E-2,-4.4042327E-2,-5.0612967E-2,-1.2845595E-2,-7.508717E-2,-6.1896294E-2,2.2957636E-2,-1.8048082E-2,4.121385E-2,-3.2515995E-2,-2.7660122E-2,-5.871972E-2,1.2566014E-2,-3.183448E-2,4.9774516E-2,2.1740152E-2,-2.2876142E-2,1.1507599E-2,4.8868746E-2,3.2867804E-2,3.85509E-2,1.18959565E-2,4.9551014E-2,-7.94546E-2,6.6931605E-2,5.4922856E-2,-8.973369E-2,-7.897271E-2,2.3449002E-2,5.0291598E-2,-8.431552E-2,2.3078827E-2,3.036238E-2,6.257392E-2,3.8617384E-2,6.8856195E-2],"split_indices":[1,4,4,4,4,0,1,4,9,9,7,9,4,0,9,9,9,4,4,9,2,4,4,2,1,6,0,6,4,4,0,9,7,9,9,9,4,2,9,6,6,11,4,2,0,4,4,0,0,0,0,0,0,0,0,0,0,0,0,0,0,0,0,0,0,0,0,0,0,0,0,0,0,0,0,0,0,0,0,0,0,0,0,0,0],"split_type":[0,0,0,0,0,0,0,0,0,0,0,0,0,0,0,0,0,0,0,0,0,0,0,0,0,0,0,0,0,0,0,0,0,0,0,0,0,0,0,0,0,0,0,0,0,0,0,0,0,0,0,0,0,0,0,0,0,0,0,0,0,0,0,0,0,0,0,0,0,0,0,0,0,0,0,0,0,0,0,0,0,0,0,0,0],"sum_hessian":[7.9844306E5,5.5330006E5,2.4514297E5,2.3464095E5,3.1865912E5,7.0792737E2,2.4443505E5,1.5276733E5,8.1873625E4,2.1035125E5,1.08307875E5,9.9177734E4,1.4525731E5,9.64735E4,5.629383E4,4.985519E4,3.2018434E4,4.6511625E4,1.6383962E5,4.663209E4,6.167578E4,1.680353E4,8.23742E4,8.901752E1,1.451683E5,2.7326271E4,2.8967557E4,2.4948736E4,2.4906455E4,2.3444812E4,8.57362E3,2.6634541E4,1.9877084E4,6.1667113E4,1.0217251E5,1.6829006E4,2.9803086E4,4.0824816E4,2.0850965E4,5.064996E3,1.1738534E4,2.969624E2,8.207724E4,1.8677767E1,7.033975E1,8.3151055E4,6.201724E4,2.4282596E4,3.043676E3,2.1691959E4,3.256777E3,1.4513132E4,1.0393323E4,1.4347307E4,9.097506E3,1.4715365E4,1.1919176E4,1.9485832E4,3.9125116E2,2.028479E4,4.1382324E4,4.871404E4,5.345847E4,5.2450645E3,1.1583942E4,1.43431E4,1.5459986E4,1.5327509E4,2.5497309E4,2.392268E3,1.8458697E4,5.030926E3,3.407039E1,1.0558679E4,1.1798552E3,1.2753397E2,1.6942842E2,2.0156798E3,8.006156E4,1.2858766E1,5.8190002E0,7.3231726E2,8.241874E4,4.294314E2,6.1587805E4],"tree_param":{"num_deleted":"0","num_feature":"15","num_nodes":"85","size_leaf_vector":"1"}},{"base_weights":[2.6226428E-4,-5.0016695E-1,1.141454E0,-1.0154823E0,3.906938E-2,-1.569549E0,1.1493013E0,-1.3342834E0,-6.535497E-1,2.03736E0,-2.278226E-2,1.7144182E-1,-8.212367E-2,9.867128E-1,1.2610327E0,-1.438377E0,-1.157101E0,1.8007953E0,-8.701948E-1,1.9126501E0,2.2635424E0,-1.6881758E0,6.4525835E-2,-7.5460285E-2,1.1997668E0,7.4872606E-2,9.6334225E-1,-1.5811284E0,1.2627472E0,8.224563E-2,-7.199617E-2,9.753686E-2,-1.484914E0,8.773636E-2,9.844953E-2,-1.5167192E0,-5.9981275E-1,8.9363985E-2,1.9550762E0,2.2992995E0,1.028823E-1,-1.8636202E0,-1.646867E0,2.0931032E0,1.4192052E-2,7.0962444E-2,2.6670141E-2,-2.0193055E0,9.973142E-1,3.1199008E-2,-8.6769804E-2,1.2070487E0,1.3369918E0,-7.67847E-2,-7.2351806E-2,-8.078931E-2,-7.4100904E-2,9.127855E-2,-4.5812275E-2,1.00138664E-1,9.1378815E-2,9.948275E-2,1.16084695E-1,-9.608264E-2,-9.1475174E-2,-8.443766E-2,-8.167083E-2,9.6468925E-2,1.1133206E-1,-8.3619304E-2,4.648901E-3,-1.0611184E-1,-8.7291054E-2,7.422588E-2,4.7612075E-2,4.405531E-2,6.0859323E-2,2.1561092E-2,6.7001626E-2],"categories":[],"categories_nodes":[],"categories_segments":[],"categories_sizes":[],"default_left":[0,0,0,0,0,0,0,0,0,0,0,0,0,0,0,0,0,0,0,0,0,0,0,0,0,0,0,0,0,0,0,0,0,0,0,0,0,0,0,0,0,0,0,0,0,0,0,0,0,0,0,0,0,0,0,0,0,0,0,0,0,0,0,0,0,0,0,0,0,0,0,0,0,0,0,0,0,0,0],"id":10,"left_children":[1,3,5,7,9,11,13,15,17,19,21,23,-1,25,27,29,31,33,35,37,39,41,43,-1,45,-1,47,49,51,-1,-1,-1,53,-1,-1,55,57,-1,59,61,-1,63,65,67,69,-1,-1,71,73,-1,-1,75,77,-1,-1,-1,-1,-1,-1,-1,-1,-1,-1,-1,-1,-1,-1,-1,-1,-1,-1,-1,-1,-1,-1,-1,-1,-1,-1],"loss_changes":[4.4998797E5,1.5220812E5,5.1117188E3,3.2316906E4,3.3083004E4,8.849646E1,4.3494688E3,2.744625E3,6.974931E4,2.2192969E2,3.775108E4,5.1445415E1,0E0,1.1627734E3,6.936406E2,4.4954688E2,5.6154586E4,7.861719E1,2.1069383E4,2.3720703E1,1.58203125E1,9.03125E1,2.5189082E4,0E0,1.7421284E0,0E0,9.454719E3,3.0443878E1,5.8478125E2,0E0,0E0,0E0,9.338281E1,0E0,0E0,1.1949219E2,6.5230914E4,0E0,1.9456055E1,1.1727539E1,0E0,9.736328E-1,2.8105469E0,1.25875E2,3.198734E4,0E0,0E0,2.5490723E1,2.0239141E3,0E0,0E0,2.6659375E2,1.6670312E2,0E0,0E0,0E0,0E0,0E0,0E0,0E0,0E0,0E0,0E0,0E0,0E0,0E0,0E0,0E0,0E0,0E0,0E0,0E0,0E0,0E0,0E0,0E0,0E0,0E0,0E0],"parents":[2147483647,0,0,1,1,2,2,3,3,4,4,5,5,6,6,7,7,8,8,9,9,10,10,11,11,13,13,14,14,15,15,16,16,17,17,18,18,19,19,20,20,21,21,22,22,24,24,26,26,27,27,28,28,32,32,35,35,36,36,38,38,39,39,41,41,42,42,43,43,44,44,47,47,48,48,51,51,52,52],"right_children":[2,4,6,8,10,12,14,16,18,20,22,24,-1,26,28,30,32,34,36,38,40,42,44,-1,46,-1,48,50,52,-1,-1,-1,54,-1,-1,56,58,-1,60,62,-1,64,66,68,70,-1,-1,72,74,-1,-1,76,78,-1,-1,-1,-1,-1,-1,-1,-1,-1,-1,-1,-1,-1,-1,-1,-1,-1,-1,-1,-1,-1,-1,-1,-1,-1,-1],"split_conditions":[1E0,7E0,3E0,3E0,7E0,1E0,2E0,2E0,3E0,4E0,8E0,2E0,-8.212367E-2,2E0,4E0,1E0,2E0,2E0,4E0,6E0,8E0,4E0,8E0,-7.5460285E-2,1.8968E2,7.4872606E-2,4E0,1E0,4E0,8.224563E-2,-7.199617E-2,9.753686E-2,4.9497474E-2,8.773636E-2,9.844953E-2,4.9497474E-2,4E0,8.9363985E-2,8E0,6E0,1.028823E-1,1.7634914E1,5E0,4E0,9E0,7.0962444E-2,2.6670141E-2,4.9497474E-2,3E0,3.1199008E-2,-8.6769804E-2,6E0,8E0,-7.67847E-2,-7.2351806E-2,-8.078931E-2,-7.4100904E-2,9.127855E-2,-4.5812275E-2,1.00138664E-1,9.1378815E-2,9.948275E-2,1.16084695E-1,-9.608264E-2,-9.1475174E-2,-8.443766E-2,-8.167083E-2,9.6468925E-2,1.1133206E-1,-8.3619304E-2,4.648901E-3,-1.0611184E-1,-8.7291054E-2,7.422588E-2,4.7612075E-2,4.405531E-2,6.0859323E-2,2.1561092E-2,6.7001626E-2],"split_indices":[1,4,4,4,0,0,1,4,0,9,4,4,0,0,4,0,0,9,4,0,4,9,0,0,3,0,4,0,1,0,0,0,10,0,0,10,0,0,4,0,0,10,9,9,4,0,0,10,0,0,0,4,4,0,0,0,0,0,0,0,0,0,0,0,0,0,0,0,0,0,0,0,0,0,0,0,0,0,0],"split_type":[0,0,0,0,0,0,0,0,0,0,0,0,0,0,0,0,0,0,0,0,0,0,0,0,0,0,0,0,0,0,0,0,0,0,0,0,0,0,0,0,0,0,0,0,0,0,0,0,0,0,0,0,0,0,0,0,0,0,0,0,0,0,0,0,0,0,0,0,0,0,0,0,0,0,0,0,0,0,0],"sum_hessian":[7.879496E5,5.4775256E5,2.4019703E5,2.8008844E5,2.6766416E5,6.9266315E2,2.3950438E5,1.489159E5,1.3117253E5,8.0351694E3,2.5962898E5,2.7737518E1,6.6492566E2,9.7555336E4,1.4194905E5,9.380076E4,5.5115145E4,1.0638829E4,1.20533695E5,5.185789E3,2.8493804E3,1.2932156E4,2.4669683E5,1.0314723E1,1.7422794E1,4.265692E3,9.328964E4,8.498427E1,1.4186406E5,4.6452065E1,9.3754305E4,5.2583135E3,4.9856832E4,8.360846E3,2.2779832E3,3.5542125E4,8.499158E4,1.3226886E3,3.8631006E3,2.4186853E3,4.3069495E2,2.4557415E3,1.0476414E4,5.9718965E3,2.4072494E5,1.2143236E1,5.2795587E0,1.0498983E3,9.223974E4,5.315225E0,7.9669044E1,8.1066336E4,6.0797723E4,2.1282584E4,2.8574246E4,9.207507E3,2.6334615E4,9.808283E3,7.518329E4,2.800103E3,1.0629976E3,1.6948958E2,2.2491958E3,8.876289E2,1.5681125E3,2.5143804E3,7.962034E3,2.6900083E3,3.2818884E3,1.074229E4,2.2998264E5,7.576255E2,2.922729E2,7.8078994E3,8.443184E4,2.4483052E3,7.861803E4,2.0400421E2,6.059372E4],"tree_param":{"num_deleted":"0","num_feature":"15","num_nodes":"79","size_leaf_vector":"1"}},{"base_weights":[-1.1997333E-4,-4.8185727E-1,1.1074978E0,-8.743459E-1,1.0393882E-2,9.3710905E-1,1.2263038E0,-1.2299074E0,-7.072646E-1,-3.3335987E-1,2.9185104E-1,1.0267583E0,9.0045065E-1,1.1380925E0,1.2773769E0,-1.2390138E0,8.175299E-2,-4.9324477E-1,-8.265246E-1,3.653822E-1,-4.4409442E-1,5.005301E-1,1.9133135E-3,6.9268465E-1,1.0401808E0,9.415039E-1,7.990349E-1,1.1544886E0,1.0780572E0,1.2363039E0,1.3216423E0,7.9407565E-2,-1.240375E0,-6.237156E-1,-1.4300016E-1,-1.0620563E0,-6.820793E-1,-8.877532E-3,5.5681133E-1,-8.89651E-1,-2.8426054E-1,3.4073013E-1,7.806155E-1,-1.7889138E-1,3.1327757E-1,2.887744E-1,7.2588634E-1,1.0675068E0,9.785018E-1,9.7133607E-1,8.235658E-1,8.5926664E-1,7.103026E-1,1.0075986E0,1.1589777E0,6.197549E-1,1.0820079E0,1.0702915E0,1.2418385E0,1.0029775E0,1.3276088E0,-6.2043965E-2,7.829441E-2,-2.8173981E-2,-4.7995668E-2,-2.8521998E-2,-3.5472338E-3,-5.9268307E-2,-4.726927E-2,-1.8921029E-2,-4.588284E-2,1.1170001E-2,-1.2849058E-2,3.374694E-2,1.1330524E-2,-3.3381928E-2,-5.3049125E-2,5.0383387E-3,-2.1465404E-2,2.9392246E-2,9.681321E-3,3.347559E-2,4.90777E-2,-4.1626613E-3,-2.2625174E-2,2.1819174E-2,3.711342E-3,2.3354737E-2,-7.238521E-2,3.8488843E-2,2.3988632E-2,4.112034E-2,5.3784132E-2,-2.4394287E-2,4.8989743E-2,4.781318E-2,5.62492E-2,3.712773E-2,4.5020368E-2,4.807899E-2,4.1244924E-2,4.0058587E-2,3.287167E-2,1.0143048E-2,5.1104546E-2,5.9639897E-2,5.651617E-2,3.9814167E-2,7.02095E-3,5.613811E-2,5.294451E-2,3.1613152E-2,5.5031057E-2,6.270134E-2,6.0210418E-2,4.04337E-2,5.4857697E-2,6.5343164E-2,6.768976E-2],"categories":[],"categories_nodes":[],"categories_segments":[],"categories_sizes":[],"default_left":[0,0,0,0,0,0,0,0,0,0,0,0,0,0,0,0,0,0,0,0,0,0,0,0,0,0,0,0,0,0,0,0,0,0,0,0,0,0,0,0,0,0,0,0,0,0,0,0,0,0,0,0,0,0,0,0,0,0,0,0,0,0,0,0,0,0,0,0,0,0,0,0,0,0,0,0,0,0,0,0,0,0,0,0,0,0,0,0,0,0,0,0,0,0,0,0,0,0,0,0,0,0,0,0,0,0,0,0,0,0,0,0,0,0,0,0,0,0,0],"id":11,"left_children":[1,3,5,7,9,11,13,15,17,19,21,23,25,27,29,31,-1,33,35,37,39,41,43,45,47,49,51,53,55,57,59,-1,61,63,65,67,69,71,73,75,77,79,81,83,85,87,89,91,93,95,97,99,101,103,105,107,109,111,113,115,117,-1,-1,-1,-1,-1,-1,-1,-1,-1,-1,-1,-1,-1,-1,-1,-1,-1,-1,-1,-1,-1,-1,-1,-1,-1,-1,-1,-1,-1,-1,-1,-1,-1,-1,-1,-1,-1,-1,-1,-1,-1,-1,-1,-1,-1,-1,-1,-1,-1,-1,-1,-1,-1,-1,-1,-1,-1,-1],"loss_changes":[4.144422E5,1.0457964E5,4.7644375E3,1.7890438E4,2.323312E4,3.167422E2,6.231875E2,2.5137812E3,5.2290625E3,8.364536E3,7.9882217E3,1.2494922E2,2.849336E2,4.8609375E1,1.5779688E2,3.7129688E2,0E0,3.3503086E3,4.4753203E3,1.0595708E3,6.6450117E3,3.4357793E3,3.110848E3,1.4269897E1,4.4216797E1,1.7095703E2,1.05009766E2,2.4953125E1,1.8947266E1,4.0320312E1,7.878906E1,0E0,1.3765625E2,1.0811211E3,6.1284094E2,7.181914E2,5.833789E3,2.885072E2,3.813999E2,9.3621875E2,3.8356274E3,1.7768472E3,6.2179297E2,9.1468945E2,5.9731934E2,2.6736105E1,1.0348938E1,3.636328E1,1.6256836E1,8.902344E1,6.0625E1,4.0463867E1,3.7803467E1,1.3581421E1,3.5976562E1,7.914566E0,8.801758E0,1.8769775E1,1.846875E1,1.3215393E1,2.0492188E1,0E0,0E0,0E0,0E0,0E0,0E0,0E0,0E0,0E0,0E0,0E0,0E0,0E0,0E0,0E0,0E0,0E0,0E0,0E0,0E0,0E0,0E0,0E0,0E0,0E0,0E0,0E0,0E0,0E0,0E0,0E0,0E0,0E0,0E0,0E0,0E0,0E0,0E0,0E0,0E0,0E0,0E0,0E0,0E0,0E0,0E0,0E0,0E0,0E0,0E0,0E0,0E0,0E0,0E0,0E0,0E0,0E0,0E0],"parents":[2147483647,0,0,1,1,2,2,3,3,4,4,5,5,6,6,7,7,8,8,9,9,10,10,11,11,12,12,13,13,14,14,15,15,17,17,18,18,19,19,20,20,21,21,22,22,23,23,24,24,25,25,26,26,27,27,28,28,29,29,30,30,32,32,33,33,34,34,35,35,36,36,37,37,38,38,39,39,40,40,41,41,42,42,43,43,44,44,45,45,46,46,47,47,48,48,49,49,50,50,51,51,52,52,53,53,54,54,55,55,56,56,57,57,58,58,59,59,60,60],"right_children":[2,4,6,8,10,12,14,16,18,20,22,24,26,28,30,32,-1,34,36,38,40,42,44,46,48,50,52,54,56,58,60,-1,62,64,66,68,70,72,74,76,78,80,82,84,86,88,90,92,94,96,98,100,102,104,106,108,110,112,114,116,118,-1,-1,-1,-1,-1,-1,-1,-1,-1,-1,-1,-1,-1,-1,-1,-1,-1,-1,-1,-1,-1,-1,-1,-1,-1,-1,-1,-1,-1,-1,-1,-1,-1,-1,-1,-1,-1,-1,-1,-1,-1,-1,-1,-1,-1,-1,-1,-1,-1,-1,-1,-1,-1,-1,-1,-1,-1,-1],"split_conditions":[1E0,8E0,2E0,2E0,3E0,3E0,3E0,2.6667875E-1,1.0917728E1,5E0,2.3613422E2,3.7325E1,3.5857E2,1.35E1,5E0,1E0,8.175299E-2,4E0,4E0,3.7796447E-1,3.7796447E-1,4.6E1,3.9E1,9.01E0,1.25E1,1.375E1,1.18E1,7.952E1,2.829E1,4E0,5E0,7.9407565E-2,4.9497474E-2,5.9361684E-1,2.317E1,3E0,4E0,3.3546818E1,1.2583333E1,8.3873344E1,5.985179E1,9.936E1,6E0,1.32E1,4.1183E2,1.7836868E0,1.5E1,2.4375E0,5.3E0,9.6E1,2.6186147E0,5E0,7E0,1.004E1,7E0,1.6444445E1,5E0,8.041E1,1.3E1,3E0,8E0,-6.2043965E-2,7.829441E-2,-2.8173981E-2,-4.7995668E-2,-2.8521998E-2,-3.5472338E-3,-5.9268307E-2,-4.726927E-2,-1.8921029E-2,-4.588284E-2,1.1170001E-2,-1.2849058E-2,3.374694E-2,1.1330524E-2,-3.3381928E-2,-5.3049125E-2,5.0383387E-3,-2.1465404E-2,2.9392246E-2,9.681321E-3,3.347559E-2,4.90777E-2,-4.1626613E-3,-2.2625174E-2,2.1819174E-2,3.711342E-3,2.3354737E-2,-7.238521E-2,3.8488843E-2,2.3988632E-2,4.112034E-2,5.3784132E-2,-2.4394287E-2,4.8989743E-2,4.781318E-2,5.62492E-2,3.712773E-2,4.5020368E-2,4.807899E-2,4.1244924E-2,4.0058587E-2,3.287167E-2,1.0143048E-2,5.1104546E-2,5.9639897E-2,5.651617E-2,3.9814167E-2,7.02095E-3,5.613811E-2,5.294451E-2,3.1613152E-2,5.5031057E-2,6.270134E-2,6.0210418E-2,4.04337E-2,5.4857697E-2,6.5343164E-2,6.768976E-2],"split_indices":[1,0,1,0,7,9,1,6,10,9,2,2,2,5,1,0,0,0,0,6,6,0,0,11,5,5,5,3,2,0,0,0,10,6,11,0,9,10,5,10,10,2,7,5,2,6,5,5,11,0,6,9,9,2,9,5,9,2,5,0,1,0,0,0,0,0,0,0,0,0,0,0,0,0,0,0,0,0,0,0,0,0,0,0,0,0,0,0,0,0,0,0,0,0,0,0,0,0,0,0,0,0,0,0,0,0,0,0,0,0,0,0,0,0,0,0,0,0,0],"split_type":[0,0,0,0,0,0,0,0,0,0,0,0,0,0,0,0,0,0,0,0,0,0,0,0,0,0,0,0,0,0,0,0,0,0,0,0,0,0,0,0,0,0,0,0,0,0,0,0,0,0,0,0,0,0,0,0,0,0,0,0,0,0,0,0,0,0,0,0,0,0,0,0,0,0,0,0,0,0,0,0,0,0,0,0,0,0,0,0,0,0,0,0,0,0,0,0,0,0,0,0,0,0,0,0,0,0,0,0,0,0,0,0,0,0,0,0,0,0,0],"sum_hessian":[7.767169E5,5.412926E5,2.3542427E5,3.011638E5,2.4012878E5,9.672019E4,1.3870406E5,9.627548E4,2.0488834E5,1.0810082E5,1.3202795E5,2.8062615E4,6.865758E4,5.0869465E4,8.78346E4,9.597103E4,3.044448E2,7.3318875E4,1.3156947E5,1.4787507E4,9.331331E4,7.677153E4,5.5256426E4,1.086282E3,2.6976332E4,4.886689E4,1.9790686E4,3.9941324E4,1.0928138E4,4.557644E4,4.225816E4,4.5590725E1,9.592544E4,5.3418645E4,1.990023E4,5.0012438E4,8.155704E4,5.0042393E3,9.783268E3,2.463501E4,6.8678305E4,4.8883887E4,2.7887645E4,3.495732E4,2.0299102E4,8.3476036E1,1.0028059E3,1.8681748E4,8.294585E3,3.8995086E4,9.871805E3,1.17827295E4,8.007955E3,1.19183E3,3.8749496E4,9.496311E1,1.0833175E4,1.4772441E3,4.40992E4,7.801025E2,4.147806E4,9.59088E4,1.6640575E1,4.530449E4,8.1141523E3,2.8695415E3,1.7030688E4,2.430957E4,2.570287E4,3.563135E4,4.5925688E4,2.5843948E3,2.4198445E3,7.2045396E3,2.5787283E3,1.0732822E4,1.3902187E4,1.8792746E4,4.988556E4,1.8239787E4,3.06441E4,1.7961262E4,9.926383E3,2.5904393E4,9.05293E3,1.3398119E4,6.9009824E3,7.641728E1,7.058751E0,8.4888635E2,1.5391951E2,6.0672894E2,1.807502E4,6.9080915E0,8.287677E3,3.551867E4,3.4764163E3,4.8113467E3,5.0604585E3,2.9552202E3,8.827509E3,2.93955E3,5.0684053E3,2.1470985E1,1.170359E3,1.7752482E4,2.0997012E4,6.876771E1,2.6195408E1,3.9021467E3,6.9310283E3,9.729059E1,1.3799535E3,3.3283746E4,1.0815452E4,2.5814667E2,5.219558E2,2.3173766E4,1.8304293E4],"tree_param":{"num_deleted":"0","num_feature":"15","num_nodes":"119","size_leaf_vector":"1"}},{"base_weights":[2.3945051E-4,-4.6170437E-1,1.0760196E0,-1.0641419E0,-4.1484106E-2,-1.5437694E0,1.083878E0,-1.2749554E0,-6.852089E-1,2.0111487E0,-1.031499E-1,1.9273427E-1,-8.112085E-2,9.231501E-1,1.1963933E0,-1.3833559E0,-1.0938696E0,1.758564E0,-1.0631962E0,1.942859E0,2.1494174E0,-1.5552267E0,-8.042329E-3,-7.531647E-2,6.261002E-2,7.191504E-2,8.996388E-1,2.6174116E-1,1.2018607E0,7.7038854E-2,-6.923669E-2,1.9119588E0,-1.4315238E0,1.7118073E0,9.62586E-2,-1.4601707E0,-6.6409767E-1,8.6060025E-2,1.9671446E0,2.1695187E0,9.8145604E-2,-1.6228715E0,-1.4979156E0,1.9061947E0,-6.055689E-2,-1.9686509E0,9.330972E-1,9.7589046E-1,-1.4344232E-1,1.1480086E0,1.2738551E0,9.657293E-2,7.93168E-2,-7.405576E-2,-6.969323E-2,8.535957E-2,9.1626786E-2,-7.755521E-2,-7.139682E-2,8.934175E-2,-7.7132896E-2,9.97036E-2,9.1355704E-2,9.078485E-2,1.0894908E-1,-8.344049E-2,-7.921429E-2,-7.588883E-2,-7.3844515E-2,9.241894E-2,1.04297236E-1,-8.0149285E-2,1.414578E-3,-1.0306549E-1,-8.595555E-2,7.136681E-2,4.442626E-2,-7.825014E-2,6.8347976E-2,6.878381E-2,5.7082947E-2,4.877932E-2,6.4133845E-2],"categories":[],"categories_nodes":[],"categories_segments":[],"categories_sizes":[],"default_left":[0,0,0,0,0,0,0,0,0,0,0,0,0,0,0,0,0,0,0,0,0,0,0,0,0,0,0,0,0,0,0,0,0,0,0,0,0,0,0,0,0,0,0,0,0,0,0,0,0,0,0,0,0,0,0,0,0,0,0,0,0,0,0,0,0,0,0,0,0,0,0,0,0,0,0,0,0,0,0,0,0,0,0],"id":12,"left_children":[1,3,5,7,9,11,13,15,17,19,21,23,-1,25,27,29,31,33,35,37,39,41,43,-1,-1,-1,45,47,49,-1,-1,51,53,55,-1,57,59,-1,61,63,-1,65,67,69,71,73,75,77,-1,79,81,-1,-1,-1,-1,-1,-1,-1,-1,-1,-1,-1,-1,-1,-1,-1,-1,-1,-1,-1,-1,-1,-1,-1,-1,-1,-1,-1,-1,-1,-1,-1,-1],"loss_changes":[3.81332E5,1.3590144E5,4.7472812E3,1.7620438E4,4.0028992E4,9.465796E1,4.1549688E3,2.7804375E3,7.284111E4,8.25E1,4.2400227E4,5.7169056E1,0E0,1.1447734E3,6.9034375E2,3.593125E2,5.387386E4,7.862891E1,1.0818531E4,2.9539062E1,6.723633E0,7.041797E1,2.8966012E4,0E0,0E0,0E0,8.68825E3,1.7634133E3,5.19375E2,0E0,0E0,3.0623047E1,8.6765625E1,1.1191406E0,0E0,9.783594E1,7.333756E4,0E0,1.696875E1,4.7978516E0,0E0,1.23515625E1,1.7304688E0,7.5708984E1,3.843433E4,2.0216064E1,1.9694922E3,6.4011523E2,0E0,1.0933594E2,1.4982031E2,0E0,0E0,0E0,0E0,0E0,0E0,0E0,0E0,0E0,0E0,0E0,0E0,0E0,0E0,0E0,0E0,0E0,0E0,0E0,0E0,0E0,0E0,0E0,0E0,0E0,0E0,0E0,0E0,0E0,0E0,0E0,0E0],"parents":[2147483647,0,0,1,1,2,2,3,3,4,4,5,5,6,6,7,7,8,8,9,9,10,10,11,11,13,13,14,14,15,15,16,16,17,17,18,18,19,19,20,20,21,21,22,22,26,26,27,27,28,28,31,31,32,32,33,33,35,35,36,36,38,38,39,39,41,41,42,42,43,43,44,44,45,45,46,46,47,47,49,49,50,50],"right_children":[2,4,6,8,10,12,14,16,18,20,22,24,-1,26,28,30,32,34,36,38,40,42,44,-1,-1,-1,46,48,50,-1,-1,52,54,56,-1,58,60,-1,62,64,-1,66,68,70,72,74,76,78,-1,80,82,-1,-1,-1,-1,-1,-1,-1,-1,-1,-1,-1,-1,-1,-1,-1,-1,-1,-1,-1,-1,-1,-1,-1,-1,-1,-1,-1,-1,-1,-1,-1,-1],"split_conditions":[1E0,5E0,3E0,3E0,5E0,1E0,2E0,2E0,3E0,3E0,6E0,2E0,-8.112085E-2,2E0,5E0,1E0,2E0,2E0,4E0,4E0,6E0,4E0,6E0,-7.531647E-2,6.261002E-2,7.191504E-2,4E0,2E0,4E0,7.7038854E-2,-6.923669E-2,2.6667875E-1,4.9497474E-2,1.024695E0,9.62586E-2,4.9497474E-2,4E0,8.6060025E-2,6E0,4E0,9.8145604E-2,3E0,5E0,4E0,7E0,4.9497474E-2,3E0,4E0,-1.4344232E-1,3E0,1.2E1,9.657293E-2,7.93168E-2,-7.405576E-2,-6.969323E-2,8.535957E-2,9.1626786E-2,-7.755521E-2,-7.139682E-2,8.934175E-2,-7.7132896E-2,9.97036E-2,9.1355704E-2,9.078485E-2,1.0894908E-1,-8.344049E-2,-7.921429E-2,-7.588883E-2,-7.3844515E-2,9.241894E-2,1.04297236E-1,-8.0149285E-2,1.414578E-3,-1.0306549E-1,-8.595555E-2,7.136681E-2,4.442626E-2,-7.825014E-2,6.8347976E-2,6.878381E-2,5.7082947E-2,4.877932E-2,6.4133845E-2],"split_indices":[1,4,4,4,0,0,1,4,0,9,4,4,0,0,4,0,0,9,4,0,4,9,0,0,0,0,4,0,1,0,0,6,10,6,0,10,0,0,4,0,0,9,9,9,4,10,0,4,0,0,4,0,0,0,0,0,0,0,0,0,0,0,0,0,0,0,0,0,0,0,0,0,0,0,0,0,0,0,0,0,0,0,0],"split_type":[0,0,0,0,0,0,0,0,0,0,0,0,0,0,0,0,0,0,0,0,0,0,0,0,0,0,0,0,0,0,0,0,0,0,0,0,0,0,0,0,0,0,0,0,0,0,0,0,0,0,0,0,0,0,0,0,0,0,0,0,0,0,0,0,0,0,0,0,0,0,0,0,0,0,0,0,0,0,0,0,0,0,0],"sum_hessian":[7.673426E5,5.368275E5,2.3051514E5,2.2058703E5,3.1624047E5,6.887629E2,2.2982638E5,1.4173328E5,7.885374E4,9.222523E3,3.0701794E5,2.9725088E1,6.590378E2,9.4641375E4,1.35185E5,8.865562E4,5.3077664E4,1.0562283E4,6.829146E4,6.18405E3,3.0384744E3,1.887181E4,2.8814612E5,1.1218245E1,1.8506844E1,4.1280615E3,9.051331E4,7.865823E2,1.3439842E5,4.119435E1,8.861442E4,5.3597485E3,4.7717918E4,8.256938E3,2.3053442E3,3.4235375E4,3.4056082E4,6.181405E2,5.565909E3,2.732771E3,3.0570328E2,8.642231E3,1.022958E4,7.692844E3,2.8045328E5,1.0429568E3,8.947036E4,6.4106323E2,1.4551906E2,7.689732E4,5.75011E4,5.051975E3,3.0777316E2,2.0578387E4,2.7139531E4,7.9682544E3,2.8868445E2,8.946639E3,2.5288734E4,8.986146E3,2.5069938E4,4.65652E3,9.0938885E2,7.648144E1,2.6562896E3,3.9247683E3,4.717463E3,5.2214253E3,5.008155E3,5.829613E3,1.8632318E3,1.5274183E4,2.6517912E5,7.549636E2,2.8799323E2,7.3985073E3,8.207185E4,8.507137E1,5.559918E2,2.0801848E3,7.481713E4,1.6553419E3,5.5845758E4],"tree_param":{"num_deleted":"0","num_feature":"15","num_nodes":"83","size_leaf_vector":"1"}},{"base_weights":[-1.0906695E-3,-4.456216E-1,1.0442948E0,-1.0417304E0,-3.9967913E-2,8.7250495E-1,1.1659248E0,-1.2492316E0,-6.706403E-1,1.9149219E0,-9.890838E-2,-1.4850063E0,8.895913E-1,2.428392E-1,1.1713301E0,-1.3576369E0,-1.0689721E0,1.6942983E0,-1.0395725E0,1.8562967E0,2.031905E0,-4.5310935E-1,2.8593847E-1,5.410827E-1,-7.867713E-2,7.039624E-2,8.66368E-1,9.251007E-1,-1.308292E-1,1.1165094E0,1.2450286E0,7.4895635E-2,-6.7949794E-2,1.8302404E0,-1.4016622E0,1.6531044E0,9.2015095E-2,-1.4278023E0,-6.5313715E-1,8.308209E-2,1.8770344E0,2.048601E0,9.3803644E-2,-1.5137084E0,-3.1406403E-1,2.0467143E0,2.2855958E-1,-7.182003E-2,7.861029E-2,-1.8795424E0,8.994097E-1,-1.5272119E0,1.3318841E0,1.0878841E0,1.1665571E0,9.826291E-1,1.2559292E0,9.2300855E-2,7.701644E-2,-7.233578E-2,-6.8367824E-2,8.2464874E-2,8.793906E-2,-7.550483E-2,-6.992546E-2,8.604236E-2,-7.51354E-2,9.502755E-2,8.764298E-2,1.0111566E-1,1.0776428E-1,-7.871763E-2,-7.309546E-2,9.12141E-2,-2.1790763E-2,9.730402E-2,1.0656364E-1,-9.435496E-2,1.4242469E-2,-9.7881265E-2,-8.3043054E-2,6.990419E-2,4.2733118E-2,5.2912603E-3,-8.2930245E-2,7.460963E-2,-1.1100743E-1,7.043295E-2,5.3846993E-2,3.2664645E-2,5.874283E-2,5.070671E-2,-1.6964327E-1,6.1347034E-2,6.4042106E-2],"categories":[],"categories_nodes":[],"categories_segments":[],"categories_sizes":[],"default_left":[0,0,0,0,0,0,0,0,0,0,0,0,0,0,0,0,0,0,0,0,0,0,0,0,0,0,0,0,0,0,0,0,0,0,0,0,0,0,0,0,0,0,0,0,0,0,0,0,0,0,0,0,0,0,0,0,0,0,0,0,0,0,0,0,0,0,0,0,0,0,0,0,0,0,0,0,0,0,0,0,0,0,0,0,0,0,0,0,0,0,0,0,0,0,0],"id":13,"left_children":[1,3,5,7,9,11,13,15,17,19,21,23,25,27,29,31,33,35,37,39,41,43,45,47,-1,-1,49,51,-1,53,55,-1,-1,57,59,61,-1,63,65,-1,67,69,-1,71,73,75,77,-1,-1,79,81,83,85,87,89,91,93,-1,-1,-1,-1,-1,-1,-1,-1,-1,-1,-1,-1,-1,-1,-1,-1,-1,-1,-1,-1,-1,-1,-1,-1,-1,-1,-1,-1,-1,-1,-1,-1,-1,-1,-1,-1,-1,-1],"loss_changes":[3.5086606E5,1.2810262E5,4.7057344E3,1.6517375E4,3.632251E4,3.7628984E3,6.576094E2,2.6868906E3,6.7128516E4,5.911328E1,4.1713816E4,1.2154895E2,1.1145781E3,1.5027637E3,5.28125E2,3.3539062E2,4.9843965E4,5.9054688E1,9.983703E3,2.1386719E1,3.7490234E0,2.3499195E4,1.4816828E4,6.1085686E1,0E0,0E0,8.0529453E3,6.222462E2,0E0,1.0624219E2,1.585E2,0E0,0E0,2.115039E1,6.9390625E1,2.1484375E-2,0E0,7.7625E1,6.72776E4,0E0,1.2533203E1,2.9658203E0,0E0,5.541797E1,3.667917E4,3.483008E1,1.6915357E4,0E0,0E0,1.4408447E1,1.9552344E3,1.9404175E1,3.072296E2,1.6623438E2,1.1554297E2,3.1134277E2,3.69375E1,0E0,0E0,0E0,0E0,0E0,0E0,0E0,0E0,0E0,0E0,0E0,0E0,0E0,0E0,0E0,0E0,0E0,0E0,0E0,0E0,0E0,0E0,0E0,0E0,0E0,0E0,0E0,0E0,0E0,0E0,0E0,0E0,0E0,0E0,0E0,0E0,0E0,0E0],"parents":[2147483647,0,0,1,1,2,2,3,3,4,4,5,5,6,6,7,7,8,8,9,9,10,10,11,11,12,12,13,13,14,14,15,15,16,16,17,17,18,18,19,19,20,20,21,21,22,22,23,23,26,26,27,27,29,29,30,30,33,33,34,34,35,35,37,37,38,38,40,40,41,41,43,43,44,44,45,45,46,46,49,49,50,50,51,51,52,52,53,53,54,54,55,55,56,56],"right_children":[2,4,6,8,10,12,14,16,18,20,22,24,26,28,30,32,34,36,38,40,42,44,46,48,-1,-1,50,52,-1,54,56,-1,-1,58,60,62,-1,64,66,-1,68,70,-1,72,74,76,78,-1,-1,80,82,84,86,88,90,92,94,-1,-1,-1,-1,-1,-1,-1,-1,-1,-1,-1,-1,-1,-1,-1,-1,-1,-1,-1,-1,-1,-1,-1,-1,-1,-1,-1,-1,-1,-1,-1,-1,-1,-1,-1,-1,-1,-1],"split_conditions":[1E0,5E0,2E0,3E0,5E0,3E0,5E0,2E0,3E0,3E0,1.7E1,1E0,2E0,2E0,4E0,1E0,2E0,2E0,4E0,4E0,6E0,6E0,1.7E1,2E0,-7.867713E-2,7.039624E-2,4E0,4E0,-1.308292E-1,3E0,1.3E1,7.4895635E-2,-6.7949794E-2,2.6667875E-1,4.9497474E-2,1.024695E0,9.2015095E-2,4.9497474E-2,4E0,8.308209E-2,6E0,4E0,9.3803644E-2,4E0,6E0,8E0,1.8E1,-7.182003E-2,7.861029E-2,4.9497474E-2,3E0,1E0,3E0,3E0,7E0,8E0,6E0,9.2300855E-2,7.701644E-2,-7.233578E-2,-6.8367824E-2,8.2464874E-2,8.793906E-2,-7.550483E-2,-6.992546E-2,8.604236E-2,-7.51354E-2,9.502755E-2,8.764298E-2,1.0111566E-1,1.0776428E-1,-7.871763E-2,-7.309546E-2,9.12141E-2,-2.1790763E-2,9.730402E-2,1.0656364E-1,-9.435496E-2,1.4242469E-2,-9.7881265E-2,-8.3043054E-2,6.990419E-2,4.2733118E-2,5.2912603E-3,-8.2930245E-2,7.460963E-2,-1.1100743E-1,7.043295E-2,5.3846993E-2,3.2664645E-2,5.874283E-2,5.070671E-2,-1.6964327E-1,6.1347034E-2,6.4042106E-2],"split_indices":[1,4,1,4,0,4,4,4,0,9,4,0,0,0,1,0,0,9,4,0,4,4,0,4,0,0,4,4,0,1,4,0,0,6,10,6,0,10,0,0,4,9,0,9,0,9,4,0,0,10,0,0,1,0,4,0,1,0,0,0,0,0,0,0,0,0,0,0,0,0,0,0,0,0,0,0,0,0,0,0,0,0,0,0,0,0,0,0,0,0,0,0,0,0,0],"split_type":[0,0,0,0,0,0,0,0,0,0,0,0,0,0,0,0,0,0,0,0,0,0,0,0,0,0,0,0,0,0,0,0,0,0,0,0,0,0,0,0,0,0,0,0,0,0,0,0,0,0,0,0,0,0,0,0,0,0,0,0,0,0,0,0,0,0,0,0,0,0,0,0,0,0,0,0,0,0,0,0,0,0,0,0,0,0,0,0,0,0,0,0,0,0,0],"sum_hessian":[7.550259E5,5.2975706E5,2.2526878E5,2.145191E5,3.1523797E5,9.338339E4,1.3188539E5,1.3758408E5,7.693502E4,9.225363E3,3.060126E5,6.71276E2,9.271211E4,7.681487E2,1.3111725E5,8.5911234E4,5.1672836E4,1.0381756E4,6.6553266E4,6.1573633E3,3.0680005E3,1.5935102E5,1.466616E5,2.7844025E1,6.43432E2,3.972983E3,8.873913E4,6.207488E2,1.4739989E2,7.519845E4,5.591879E4,4.0305595E1,8.587093E4,5.3186763E3,4.635416E4,8.10734E3,2.2744163E3,3.3198074E4,3.3355195E4,6.0110156E2,5.5562617E3,2.7595513E3,3.0844925E2,1.846842E4,1.408826E5,4.627323E3,1.4203427E5,9.374886E0,1.846914E1,1.0544073E3,8.768473E4,8.789137E1,5.328574E2,4.78531E4,2.7345354E4,2.234326E3,5.3684465E4,5.0387607E3,2.7991556E2,2.0019176E4,2.6334982E4,7.8423716E3,2.6496826E2,8.700765E3,2.4497309E4,8.79049E3,2.4564703E4,4.6588486E3,8.9741284E2,2.230767E3,5.2878406E2,8.493397E3,9.975022E3,7.5885356E3,1.3329406E5,2.1243286E3,2.5029944E3,3.6801743E3,1.383541E5,7.707812E2,2.8362613E2,7.217617E3,8.046711E4,6.5028768E0,8.13885E1,5.1042905E2,2.2428352E1,1.5742838E3,4.627882E4,4.365995E2,2.6908754E4,2.2191384E3,1.5187466E1,2.4837625E4,2.884684E4],"tree_param":{"num_deleted":"0","num_feature":"15","num_nodes":"95","size_leaf_vector":"1"}},{"base_weights":[-1.5058463E-3,-4.3124294E-1,1.0159211E0,-8.006522E-1,6.3179634E-3,8.451612E-1,1.1379987E0,-1.1488321E0,-6.4252293E-1,-3.127263E-1,2.6827624E-1,9.22769E-1,7.994186E-1,1.0481132E0,1.1907216E0,-1.1499454E0,7.237721E-2,-4.4884136E-1,-7.5099874E-1,1.9760948E-1,-4.619103E-1,5.148002E-1,4.793832E-2,7.423407E-1,9.418567E-1,8.339286E-1,6.604827E-1,1.0671036E0,9.890414E-1,1.1491252E0,1.236643E0,7.266897E-2,-1.1509709E0,-5.7501304E-1,-1.2022646E-1,-9.795326E-1,-6.15435E-1,3.227599E-1,-1.9959964E-1,-6.8547267E-1,-2.5123262E-1,3.130299E-1,7.150316E-1,-1.1160968E-1,3.901344E-1,6.524318E-1,8.4464806E-1,9.7122407E-1,8.7075245E-1,9.05358E-1,7.8441423E-1,7.4561834E-1,5.998933E-1,9.1708905E-1,1.0719091E0,3.3993986E-1,9.9293345E-1,9.734343E-1,1.1549855E0,9.7495764E-1,1.244024E0,-5.6119528E-2,-6.033041E-2,-4.742829E-2,-2.6775872E-2,-1.0964148E-2,6.0019563E-3,-5.548611E-2,-4.2924535E-2,-1.6720623E-2,-4.176047E-2,3.429989E-2,1.02564795E-2,5.2910093E-3,-1.8397922E-2,-2.1863405E-2,-4.3684546E-2,6.301721E-3,-2.0968376E-2,1.9437091E-2,-7.0691817E-3,2.7701536E-2,4.33571E-2,-9.736043E-4,-1.9474993E-2,1.3736551E-2,3.074723E-2,3.5348814E-2,2.279806E-2,4.2409863E-2,-5.574866E-3,3.6287487E-2,4.8975617E-2,4.4056248E-2,2.9971922E-2,4.3064617E-2,5.2485045E-2,4.0908284E-2,3.6195677E-2,3.1146849E-2,4.2527825E-2,3.973141E-2,2.8774006E-2,1.0578816E-2,4.6473943E-2,5.522231E-2,5.2180983E-2,2.608142E-3,3.3845853E-2,3.9656673E-2,4.9843367E-2,2.9639134E-2,5.048719E-2,5.836599E-2,5.5505265E-2,4.219478E-2,5.3532537E-2,6.12681E-2,6.3892834E-2],"categories":[],"categories_nodes":[],"categories_segments":[],"categories_sizes":[],"default_left":[0,0,0,0,0,0,0,0,0,0,0,0,0,0,0,0,0,0,0,0,0,0,0,0,0,0,0,0,0,0,0,0,0,0,0,0,0,0,0,0,0,0,0,0,0,0,0,0,0,0,0,0,0,0,0,0,0,0,0,0,0,0,0,0,0,0,0,0,0,0,0,0,0,0,0,0,0,0,0,0,0,0,0,0,0,0,0,0,0,0,0,0,0,0,0,0,0,0,0,0,0,0,0,0,0,0,0,0,0,0,0,0,0,0,0,0,0,0,0],"id":14,"left_children":[1,3,5,7,9,11,13,15,17,19,21,23,25,27,29,31,-1,33,35,37,39,41,43,45,47,49,51,53,55,57,59,-1,61,63,65,67,69,71,73,75,77,79,81,83,85,87,89,91,93,95,97,99,101,103,105,107,109,111,113,115,117,-1,-1,-1,-1,-1,-1,-1,-1,-1,-1,-1,-1,-1,-1,-1,-1,-1,-1,-1,-1,-1,-1,-1,-1,-1,-1,-1,-1,-1,-1,-1,-1,-1,-1,-1,-1,-1,-1,-1,-1,-1,-1,-1,-1,-1,-1,-1,-1,-1,-1,-1,-1,-1,-1,-1,-1,-1,-1],"loss_changes":[3.2484156E5,8.443021E4,4.5979375E3,1.559275E4,1.9984246E4,3.2560938E2,6.081875E2,2.5728906E2,4.0916562E3,8.208107E3,7.132172E3,1.16578125E2,2.7680078E2,5.2101562E1,1.5321094E2,2.3773438E2,0E0,2.8991572E3,3.8670781E3,1.212388E3,3.9289492E3,2.5032793E3,3.7855742E3,2.9356445E1,6.335547E1,1.6307617E2,5.8847168E1,2.4757812E1,2.8802734E1,4.2476562E1,7.296875E1,0E0,1.3895312E2,7.447949E2,4.6178427E2,7.313281E2,4.8395605E3,7.921548E2,3.0052747E2,1.8902637E3,2.7245554E3,1.062082E3,7.6106934E2,1.2107317E3,5.717595E2,1.8252075E1,5.341797E0,4.3496094E1,2.4717285E1,1.1957422E2,5.517578E1,6.0929688E1,3.1432129E1,9.518372E0,3.0722656E1,6.7516785E0,8.083008E0,1.832312E1,2.1273438E1,1.2220825E1,2.1832031E1,0E0,0E0,0E0,0E0,0E0,0E0,0E0,0E0,0E0,0E0,0E0,0E0,0E0,0E0,0E0,0E0,0E0,0E0,0E0,0E0,0E0,0E0,0E0,0E0,0E0,0E0,0E0,0E0,0E0,0E0,0E0,0E0,0E0,0E0,0E0,0E0,0E0,0E0,0E0,0E0,0E0,0E0,0E0,0E0,0E0,0E0,0E0,0E0,0E0,0E0,0E0,0E0,0E0,0E0,0E0,0E0,0E0,0E0],"parents":[2147483647,0,0,1,1,2,2,3,3,4,4,5,5,6,6,7,7,8,8,9,9,10,10,11,11,12,12,13,13,14,14,15,15,17,17,18,18,19,19,20,20,21,21,22,22,23,23,24,24,25,25,26,26,27,27,28,28,29,29,30,30,32,32,33,33,34,34,35,35,36,36,37,37,38,38,39,39,40,40,41,41,42,42,43,43,44,44,45,45,46,46,47,47,48,48,49,49,50,50,51,51,52,52,53,53,54,54,55,55,56,56,57,57,58,58,59,59,60,60],"right_children":[2,4,6,8,10,12,14,16,18,20,22,24,26,28,30,32,-1,34,36,38,40,42,44,46,48,50,52,54,56,58,60,-1,62,64,66,68,70,72,74,76,78,80,82,84,86,88,90,92,94,96,98,100,102,104,106,108,110,112,114,116,118,-1,-1,-1,-1,-1,-1,-1,-1,-1,-1,-1,-1,-1,-1,-1,-1,-1,-1,-1,-1,-1,-1,-1,-1,-1,-1,-1,-1,-1,-1,-1,-1,-1,-1,-1,-1,-1,-1,-1,-1,-1,-1,-1,-1,-1,-1,-1,-1,-1,-1,-1,-1,-1,-1,-1,-1,-1,-1],"split_conditions":[1E0,8E0,2E0,2E0,3E0,4E0,3E0,4.9497474E-2,1.0917728E1,6E0,1.8997E2,7.568E1,1.3875E1,1.3066667E1,5E0,1E0,7.237721E-2,4E0,4E0,1.4E1,1.6E1,3.3E1,4.6E1,3.651E1,1.3E1,1.928E2,2.04765E2,8.366E1,2.626E1,4E0,6E0,7.266897E-2,1.355E1,2.548E1,6E0,3E0,4E0,1.4263255E1,3.0250614E1,8E0,1.2E1,1.7E1,5E0,1.3285714E1,9.6E1,1.355E1,7.439E1,3E0,1.46696E3,5.4E1,4.31188E2,3E0,5E0,1.004E1,7E0,2E0,4.373E1,1.0749E2,1.3285714E1,4E0,9E0,-5.6119528E-2,-6.033041E-2,-4.742829E-2,-2.6775872E-2,-1.0964148E-2,6.0019563E-3,-5.548611E-2,-4.2924535E-2,-1.6720623E-2,-4.176047E-2,3.429989E-2,1.02564795E-2,5.2910093E-3,-1.8397922E-2,-2.1863405E-2,-4.3684546E-2,6.301721E-3,-2.0968376E-2,1.9437091E-2,-7.0691817E-3,2.7701536E-2,4.33571E-2,-9.736043E-4,-1.9474993E-2,1.3736551E-2,3.074723E-2,3.5348814E-2,2.279806E-2,4.2409863E-2,-5.574866E-3,3.6287487E-2,4.8975617E-2,4.4056248E-2,2.9971922E-2,4.3064617E-2,5.2485045E-2,4.0908284E-2,3.6195677E-2,3.1146849E-2,4.2527825E-2,3.973141E-2,2.8774006E-2,1.0578816E-2,4.6473943E-2,5.522231E-2,5.2180983E-2,2.608142E-3,3.3845853E-2,3.9656673E-2,4.9843367E-2,2.9639134E-2,5.048719E-2,5.836599E-2,5.5505265E-2,4.219478E-2,5.3532537E-2,6.12681E-2,6.3892834E-2],"split_indices":[1,0,1,0,7,9,1,10,10,9,2,2,5,5,1,0,0,0,0,5,0,0,0,11,5,2,2,3,2,0,0,0,5,11,0,0,9,10,10,9,9,9,7,5,0,5,11,5,3,0,2,7,9,2,9,8,2,3,5,0,1,0,0,0,0,0,0,0,0,0,0,0,0,0,0,0,0,0,0,0,0,0,0,0,0,0,0,0,0,0,0,0,0,0,0,0,0,0,0,0,0,0,0,0,0,0,0,0,0,0,0,0,0,0,0,0,0,0,0],"split_type":[0,0,0,0,0,0,0,0,0,0,0,0,0,0,0,0,0,0,0,0,0,0,0,0,0,0,0,0,0,0,0,0,0,0,0,0,0,0,0,0,0,0,0,0,0,0,0,0,0,0,0,0,0,0,0,0,0,0,0,0,0,0,0,0,0,0,0,0,0,0,0,0,0,0,0,0,0,0,0,0,0,0,0,0,0,0,0,0,0,0,0,0,0,0,0,0,0,0,0,0,0,0,0,0,0,0,0,0,0,0,0,0,0,0,0,0,0,0,0],"sum_hessian":[7.4295825E5,5.223364E5,2.2062188E5,2.832245E5,2.3911189E5,9.1976086E4,1.2864579E5,8.845385E4,1.9477066E5,1.0780881E5,1.313031E5,3.4099984E4,5.78761E4,4.756934E4,8.1076445E4,8.841654E4,3.7313236E1,6.99257E4,1.2484495E5,2.4386234E4,8.342257E4,6.196834E4,6.933475E4,3.266662E3,3.083332E4,4.6356098E4,1.1520004E4,3.598285E4,1.1586488E4,4.2556336E4,3.8520105E4,3.4224327E1,8.838231E4,5.052541E4,1.940029E4,4.648068E4,7.8364266E4,1.8543951E4,5.8422847E3,4.047232E4,4.2950254E4,3.0867088E4,3.1101254E4,4.7287473E4,2.2047275E4,1.7431323E3,1.5235298E3,2.1810928E4,9.022393E3,1.8970281E4,2.7385816E4,4.78439E3,6.735614E3,1.1234639E3,3.485939E4,6.973932E1,1.1516749E4,1.3796313E3,4.1176707E4,1.060716E3,3.745939E4,5.8403695E4,2.9978621E4,4.828788E3,4.569662E4,1.3737222E4,5.663067E3,2.23898E4,2.4090879E4,3.439141E4,4.397286E4,4.5348438E3,1.4009106E4,2.075996E3,3.7662886E3,1.7456361E4,2.3015957E4,1.324047E4,2.9709785E4,2.6458996E4,4.4080913E3,1.5111653E4,1.59896E4,3.551388E4,1.1773594E4,1.457041E4,7.476865E3,1.3619254E3,3.8120694E2,1.518112E3,5.4176917E0,7.156604E2,2.1095268E4,8.687642E3,3.347513E2,1.4539308E4,4.4309727E3,1.7569926E4,9.815892E3,2.2093572E3,2.575033E3,7.463779E2,5.989236E3,1.9840311E1,1.1036235E3,1.619318E4,1.8666209E4,3.839862E1,3.13407E1,2.2677887E2,1.1289971E4,1.2188841E2,1.2577429E3,3.2278477E4,8.8982295E3,4.5221814E2,6.0849774E2,2.416829E4,1.3291104E4],"tree_param":{"num_deleted":"0","num_feature":"15","num_nodes":"119","size_leaf_vector":"1"}},{"base_weights":[1.4984942E-3,-4.0945572E-1,9.875258E-1,-9.934463E-1,-2.8265417E-2,8.1637347E-1,1.1111797E0,-1.2045177E0,-6.248935E-1,1.846795E0,-8.513604E-2,-1.4642051E0,8.335293E-1,5.8971214E-1,1.1210569E0,-1.3153263E0,-1.0227914E0,1.6594537E0,-9.936339E-1,1.7928493E0,1.9532418E0,-1.4639294E0,6.83505E-4,3.5961398E-1,-7.774525E-2,6.815705E-2,8.1005925E-1,8.749124E-1,-1.8237264E-1,1.0650301E0,1.1950866E0,7.120429E-2,-6.583234E-2,1.8009317E0,-1.3600835E0,8.0913566E-2,9.0218045E-2,-1.3840644E0,-6.1114347E-1,8.148019E-2,1.8097583E0,1.92645E0,1.02917306E-1,-1.5231538E0,-1.4125047E0,1.7703066E0,-4.7493014E-2,-7.287463E-2,7.493827E-2,-1.8353977E0,8.422774E-1,-1.523529E0,9.780965E-1,1.3075926E0,1.0528611E0,9.103831E-1,1.203718E0,9.0829484E-2,7.634801E-2,-7.0151016E-2,-6.62983E-2,-7.2917454E-2,-6.7811355E-2,8.421071E-2,-7.285555E-2,9.153389E-2,8.506698E-2,9.70197E-2,8.934188E-2,-7.804303E-2,-7.4544765E-2,-7.1432225E-2,-6.976547E-2,8.589483E-2,9.652104E-2,-7.6508045E-2,1.7621684E-3,-9.5273696E-2,-8.1585996E-2,6.771094E-2,3.9853714E-2,-7.402615E-3,-8.194828E-2,2.1294147E-2,6.1975267E-2,6.8252034E-2,5.740207E-2,-1.8441007E-1,5.314352E-2,4.7920167E-2,-1.8322678E-1,5.8984846E-2,6.191817E-2],"categories":[],"categories_nodes":[],"categories_segments":[],"categories_sizes":[],"default_left":[0,0,0,0,0,0,0,0,0,0,0,0,0,0,0,0,0,0,0,0,0,0,0,0,0,0,0,0,0,0,0,0,0,0,0,0,0,0,0,0,0,0,0,0,0,0,0,0,0,0,0,0,0,0,0,0,0,0,0,0,0,0,0,0,0,0,0,0,0,0,0,0,0,0,0,0,0,0,0,0,0,0,0,0,0,0,0,0,0,0,0,0,0],"id":15,"left_children":[1,3,5,7,9,11,13,15,17,19,21,23,25,27,29,31,33,35,37,39,41,43,45,47,-1,-1,49,51,-1,53,55,-1,-1,57,59,-1,-1,61,63,-1,65,67,-1,69,71,73,75,-1,-1,77,79,81,83,85,87,89,91,-1,-1,-1,-1,-1,-1,-1,-1,-1,-1,-1,-1,-1,-1,-1,-1,-1,-1,-1,-1,-1,-1,-1,-1,-1,-1,-1,-1,-1,-1,-1,-1,-1,-1,-1,-1],"loss_changes":[2.973144E5,1.1528662E5,4.5669062E3,1.59099375E4,3.3414383E4,3.5434375E3,6.445781E2,2.6172031E3,6.2741445E4,4.9091797E1,3.5986754E4,1.1255347E2,1.1156641E3,2.820529E3,5.085625E2,2.9410938E2,4.6924797E4,5.851758E1,9.576184E3,1.3638672E1,4.3378906E0,5.183203E1,2.4409227E4,7.0082825E1,0E0,0E0,7.335754E3,5.422803E2,0E0,2.0504688E2,1.2885156E2,0E0,0E0,1.944336E1,6.2335938E1,0E0,0E0,6.3367188E1,6.291163E4,0E0,9.119141E0,9.863281E-1,0E0,7.4257812E0,3.75E-1,5.999414E1,3.4191047E4,0E0,0E0,1.1319092E1,1.9661016E3,1.3946945E1,3.018573E2,2.8794922E1,3.1674219E3,3.466183E2,4.1078125E1,0E0,0E0,0E0,0E0,0E0,0E0,0E0,0E0,0E0,0E0,0E0,0E0,0E0,0E0,0E0,0E0,0E0,0E0,0E0,0E0,0E0,0E0,0E0,0E0,0E0,0E0,0E0,0E0,0E0,0E0,0E0,0E0,0E0,0E0,0E0,0E0],"parents":[2147483647,0,0,1,1,2,2,3,3,4,4,5,5,6,6,7,7,8,8,9,9,10,10,11,11,12,12,13,13,14,14,15,15,16,16,17,17,18,18,19,19,20,20,21,21,22,22,23,23,26,26,27,27,29,29,30,30,33,33,34,34,37,37,38,38,40,40,41,41,43,43,44,44,45,45,46,46,49,49,50,50,51,51,52,52,53,53,54,54,55,55,56,56],"right_children":[2,4,6,8,10,12,14,16,18,20,22,24,26,28,30,32,34,36,38,40,42,44,46,48,-1,-1,50,52,-1,54,56,-1,-1,58,60,-1,-1,62,64,-1,66,68,-1,70,72,74,76,-1,-1,78,80,82,84,86,88,90,92,-1,-1,-1,-1,-1,-1,-1,-1,-1,-1,-1,-1,-1,-1,-1,-1,-1,-1,-1,-1,-1,-1,-1,-1,-1,-1,-1,-1,-1,-1,-1,-1,-1,-1,-1,-1],"split_conditions":[1E0,5E0,2E0,3E0,5E0,3E0,6E0,2E0,3E0,3E0,6E0,1E0,2E0,3E0,4E0,1E0,2E0,2E0,4E0,4E0,4E0,4E0,6E0,2E0,-7.774525E-2,6.815705E-2,4E0,4E0,-1.8237264E-1,4E0,1.2E1,7.120429E-2,-6.583234E-2,2.6667875E-1,2E0,8.0913566E-2,9.0218045E-2,2E0,4E0,8.148019E-2,6E0,6E0,1.02917306E-1,3E0,5E0,4E0,7E0,-7.287463E-2,7.493827E-2,2E0,3E0,1E0,5E0,3E0,7E0,7E0,7E0,9.0829484E-2,7.634801E-2,-7.0151016E-2,-6.62983E-2,-7.2917454E-2,-6.7811355E-2,8.421071E-2,-7.285555E-2,9.153389E-2,8.506698E-2,9.70197E-2,8.934188E-2,-7.804303E-2,-7.4544765E-2,-7.1432225E-2,-6.976547E-2,8.589483E-2,9.652104E-2,-7.6508045E-2,1.7621684E-3,-9.5273696E-2,-8.1585996E-2,6.771094E-2,3.9853714E-2,-7.402615E-3,-8.194828E-2,2.1294147E-2,6.1975267E-2,6.8252034E-2,5.740207E-2,-1.8441007E-1,5.314352E-2,4.7920167E-2,-1.8322678E-1,5.8984846E-2,6.191817E-2],"split_indices":[1,4,1,4,0,4,4,4,0,9,4,0,0,0,1,0,0,9,4,0,9,9,0,4,0,0,4,4,0,0,4,0,0,6,9,0,0,9,0,0,4,4,0,9,9,9,4,0,0,9,0,0,4,1,4,0,1,0,0,0,0,0,0,0,0,0,0,0,0,0,0,0,0,0,0,0,0,0,0,0,0,0,0,0,0,0,0,0,0,0,0,0,0],"split_type":[0,0,0,0,0,0,0,0,0,0,0,0,0,0,0,0,0,0,0,0,0,0,0,0,0,0,0,0,0,0,0,0,0,0,0,0,0,0,0,0,0,0,0,0,0,0,0,0,0,0,0,0,0,0,0,0,0,0,0,0,0,0,0,0,0,0,0,0,0,0,0,0,0,0,0,0,0,0,0,0,0,0,0,0,0,0,0,0,0,0,0,0,0],"sum_hessian":[7.337233E5,5.178821E5,2.1584123E5,2.0453258E5,3.1334953E5,9.053625E4,1.25304984E5,1.3004997E5,7.44826E4,9.223151E3,3.0412638E5,6.753068E2,8.9860945E4,2.3306125E3,1.2297437E5,8.0784445E4,4.9265527E4,1.035147E4,6.4131133E4,6.1335435E3,3.0896082E3,1.7819525E4,2.8630684E5,3.17998E1,6.43507E2,3.8106523E3,8.60503E4,2.1843994E3,1.462131E2,7.0008E4,5.2966375E4,3.836836E1,8.074608E4,5.2563193E3,4.4009207E4,8.0706523E3,2.2808176E3,3.1734736E4,3.2396396E4,5.8537683E2,5.5481665E3,2.4781821E3,6.11426E2,8.267519E3,9.552007E3,7.5869995E3,2.7871984E5,1.2112085E1,1.9687716E1,1.0346581E3,8.501563E4,8.949178E1,2.0949077E3,3.3389111E3,6.6669086E4,1.562015E3,5.140436E4,4.96648E3,2.898394E2,1.9466955E4,2.454225E4,8.635574E3,2.3099162E4,8.72414E3,2.3672256E4,4.6366987E3,9.114676E2,2.2407683E3,2.3741393E2,3.7885815E3,4.4789375E3,4.8819E3,4.6701074E3,5.725297E3,1.8617026E3,1.4730332E4,2.639895E5,7.6322235E2,2.714357E2,6.895098E3,7.812054E4,7.1728563E0,8.2318924E1,6.7404065E2,1.420867E3,2.4489563E3,8.8995483E2,1.3965797E2,6.652943E4,1.5465936E3,1.5421327E1,3.0379197E4,2.1025162E4],"tree_param":{"num_deleted":"0","num_feature":"15","num_nodes":"93","size_leaf_vector":"1"}},{"base_weights":[-2.3838528E-3,-4.004445E-1,9.617361E-1,-9.7442704E-1,-3.4998924E-2,7.90283E-1,1.086769E0,-1.1834586E0,-6.112171E-1,1.771039E0,-8.889328E-2,-1.4153209E0,8.066119E-1,9.932376E-1,1.1423101E0,-1.2951632E0,-1.0017209E0,1.6075319E0,-9.7343326E-1,1.7236573E0,1.8641573E0,-4.6407303E-1,2.0440958E-1,5.986378E-1,-7.5667426E-2,6.6951774E-2,7.837565E-1,-1.5333431E0,9.9788296E-1,3.3819938E-1,1.1477567E0,6.959876E-2,-6.482358E-2,1.7317411E0,-1.3364481E0,7.848253E-2,8.6639725E-2,-1.3583032E0,-5.9726167E-1,7.903529E-2,1.7393861E0,1.8396457E0,9.793653E-2,-1.4312335E0,-3.189548E-1,1.9732573E0,1.4538427E-1,-6.890195E-2,7.3204674E-2,-1.762132E0,8.149747E-1,-1.1066146E0,-8.022261E-2,5.046237E-1,1.0050615E0,6.716622E-1,-1.8062203E-1,1.1183664E0,1.2018163E0,8.727967E-2,7.445126E-2,-6.882956E-2,-6.5263614E-2,-7.1369715E-2,-6.666329E-2,8.147492E-2,-7.12584E-2,8.79016E-2,8.2117535E-2,9.260747E-2,8.5813954E-2,-7.4246064E-2,-6.921777E-2,8.534358E-2,-2.2910846E-2,9.54672E-2,1.0443393E-1,-8.753755E-2,1.0201993E-2,-9.1301925E-2,-7.924343E-2,6.6564076E-2,3.855782E-2,-7.09728E-2,-2.2319932E-2,7.118559E-2,-1.2638797E-1,6.6944696E-2,4.9680833E-2,-1.1749741E-2,5.853198E-2,4.7980472E-2,5.6334134E-2,4.8712637E-2,6.0790163E-2],"categories":[],"categories_nodes":[],"categories_segments":[],"categories_sizes":[],"default_left":[0,0,0,0,0,0,0,0,0,0,0,0,0,0,0,0,0,0,0,0,0,0,0,0,0,0,0,0,0,0,0,0,0,0,0,0,0,0,0,0,0,0,0,0,0,0,0,0,0,0,0,0,0,0,0,0,0,0,0,0,0,0,0,0,0,0,0,0,0,0,0,0,0,0,0,0,0,0,0,0,0,0,0,0,0,0,0,0,0,0,0,0,0,0,0],"id":16,"left_children":[1,3,5,7,9,11,13,15,17,19,21,23,25,27,29,31,33,35,37,39,41,43,45,47,-1,-1,49,51,53,55,57,-1,-1,59,61,-1,-1,63,65,-1,67,69,-1,71,73,75,77,-1,-1,79,81,83,-1,85,87,89,-1,91,93,-1,-1,-1,-1,-1,-1,-1,-1,-1,-1,-1,-1,-1,-1,-1,-1,-1,-1,-1,-1,-1,-1,-1,-1,-1,-1,-1,-1,-1,-1,-1,-1,-1,-1,-1,-1],"loss_changes":[2.7612297E5,1.068168E5,4.5061406E3,1.5039094E4,3.0284848E4,3.1945234E3,6.3025E2,2.5509688E3,5.8158176E4,3.620508E1,3.3246344E4,1.2970703E2,1.0698242E3,5.3323047E2,3.3351562E2,2.755703E2,4.379955E4,4.5140625E1,9.005453E3,1.0386719E1,3.0361328E0,1.8604586E4,1.7703283E4,5.4937714E1,0E0,0E0,6.7091875E3,4.8718262E-1,1.5947656E2,6.8020197E2,1.18796875E2,0E0,0E0,1.4636719E1,5.1304688E1,0E0,0E0,5.101172E1,5.800403E4,0E0,6.5146484E0,1.9921875E-1,0E0,4.1183594E1,3.2519836E4,3.6001953E1,1.8250223E4,0E0,0E0,8.349609E0,1.8850664E3,2.3503647E0,0E0,1.8176444E3,1.6873828E2,2.1548978E2,0E0,6.353125E1,8.348047E1,0E0,0E0,0E0,0E0,0E0,0E0,0E0,0E0,0E0,0E0,0E0,0E0,0E0,0E0,0E0,0E0,0E0,0E0,0E0,0E0,0E0,0E0,0E0,0E0,0E0,0E0,0E0,0E0,0E0,0E0,0E0,0E0,0E0,0E0,0E0,0E0],"parents":[2147483647,0,0,1,1,2,2,3,3,4,4,5,5,6,6,7,7,8,8,9,9,10,10,11,11,12,12,13,13,14,14,15,15,16,16,17,17,18,18,19,19,20,20,21,21,22,22,23,23,26,26,27,27,28,28,29,29,30,30,33,33,34,34,37,37,38,38,40,40,41,41,43,43,44,44,45,45,46,46,49,49,50,50,51,51,53,53,54,54,55,55,57,57,58,58],"right_children":[2,4,6,8,10,12,14,16,18,20,22,24,26,28,30,32,34,36,38,40,42,44,46,48,-1,-1,50,52,54,56,58,-1,-1,60,62,-1,-1,64,66,-1,68,70,-1,72,74,76,78,-1,-1,80,82,84,-1,86,88,90,-1,92,94,-1,-1,-1,-1,-1,-1,-1,-1,-1,-1,-1,-1,-1,-1,-1,-1,-1,-1,-1,-1,-1,-1,-1,-1,-1,-1,-1,-1,-1,-1,-1,-1,-1,-1,-1,-1],"split_conditions":[1E0,5E0,2E0,3E0,5E0,3E0,3E0,2E0,3E0,3E0,1.4E1,1E0,2E0,4E0,7E0,1E0,2E0,4.9497474E-2,4E0,4E0,4E0,6E0,1.4E1,2E0,-7.5667426E-2,6.6951774E-2,4E0,1.07652855E2,5E0,3E0,6E0,6.959876E-2,-6.482358E-2,2.6667875E-1,4.9497474E-2,7.848253E-2,8.6639725E-2,4.9497474E-2,4E0,7.903529E-2,6E0,6E0,9.793653E-2,4E0,6E0,8E0,1.5E1,-6.890195E-2,7.3204674E-2,4.9497474E-2,3E0,7.182E1,-8.022261E-2,2E0,3E0,6E0,-1.8062203E-1,1E1,2E1,8.727967E-2,7.445126E-2,-6.882956E-2,-6.5263614E-2,-7.1369715E-2,-6.666329E-2,8.147492E-2,-7.12584E-2,8.79016E-2,8.2117535E-2,9.260747E-2,8.5813954E-2,-7.4246064E-2,-6.921777E-2,8.534358E-2,-2.2910846E-2,9.54672E-2,1.0443393E-1,-8.753755E-2,1.0201993E-2,-9.1301925E-2,-7.924343E-2,6.6564076E-2,3.855782E-2,-7.09728E-2,-2.2319932E-2,7.118559E-2,-1.2638797E-1,6.6944696E-2,4.9680833E-2,-1.1749741E-2,5.853198E-2,4.7980472E-2,5.6334134E-2,4.8712637E-2,6.0790163E-2],"split_indices":[1,4,1,4,0,4,1,4,0,9,4,0,0,4,4,0,0,10,4,0,9,4,0,4,0,0,4,2,4,0,1,0,0,6,10,0,0,10,0,0,4,4,0,9,0,9,4,0,0,10,0,2,0,0,0,4,0,4,4,0,0,0,0,0,0,0,0,0,0,0,0,0,0,0,0,0,0,0,0,0,0,0,0,0,0,0,0,0,0,0,0,0,0,0,0],"split_type":[0,0,0,0,0,0,0,0,0,0,0,0,0,0,0,0,0,0,0,0,0,0,0,0,0,0,0,0,0,0,0,0,0,0,0,0,0,0,0,0,0,0,0,0,0,0,0,0,0,0,0,0,0,0,0,0,0,0,0,0,0,0,0,0,0,0,0,0,0,0,0,0,0,0,0,0,0,0,0,0,0,0,0,0,0,0,0,0,0,0,0,0,0,0,0],"sum_hessian":[7.194839E5,5.0923453E5,2.1024933E5,1.9809584E5,3.111387E5,8.866896E4,1.2158037E5,1.2573268E5,7.2363164E4,9.014737E3,3.0212394E5,6.509479E2,8.8018016E4,4.5305875E4,7.627449E4,7.786592E4,4.786676E4,1.0155023E4,6.220814E4,5.9882793E3,3.0264583E3,1.3255953E5,1.695644E5,2.9929287E1,6.210186E2,3.6202886E3,8.439773E4,8.250188E1,4.5223375E4,5.1370624E2,7.576079E4,3.733993E1,7.782858E4,5.2215845E3,4.2645176E4,7.8080728E3,2.3469507E3,3.074714E4,3.1461E4,6.042668E2,5.384012E3,2.4205964E3,6.058617E2,1.7293703E4,1.15265836E5,5.4744385E3,1.6408997E5,8.898209E0,2.1031078E1,1.0216558E3,8.337607E4,1.4350776E1,6.81511E1,6.499287E2,4.4573445E4,4.745095E2,3.9196766E1,4.909373E4,2.6667057E4,4.9334185E3,2.8816608E2,1.862134E4,2.4023836E4,8.1625415E3,2.2584598E4,8.526581E3,2.293442E4,4.5009766E3,8.830359E2,2.1843772E3,2.3621936E2,8.0460664E3,9.247637E3,7.413322E3,1.0785251E5,3.5352485E3,1.9391901E3,4.9227783E3,1.5916719E5,7.436812E2,2.7797464E2,6.519995E3,7.685607E4,8.85392E0,5.496856E0,4.9919168E2,1.5073705E2,1.4733341E3,4.310011E4,1.6855983E2,3.0594968E2,2.4501084E3,4.664362E4,1.5486575E3,2.5118398E4],"tree_param":{"num_deleted":"0","num_feature":"15","num_nodes":"95","size_leaf_vector":"1"}},{"base_weights":[-5.2214553E-5,-9.877492E-1,3.030949E-1,-1.1638144E0,-4.9818987E-1,4.828251E-2,6.2525207E-1,-1.2766566E0,-9.834581E-1,1.2498049E0,-1.334897E0,1.2229517E0,-7.193099E-2,1.3238738E0,5.632872E-1,7.0835257E-1,-6.389307E-2,1.341195E0,-1.3148338E0,1.3551915E0,1.2036637E0,-1.3969929E0,-1.3114061E0,1.2831544E0,1.1972103E0,-9.425129E-1,1.0749093E-1,1.4075179E0,1.2870187E0,-1.0032116E0,6.166862E-1,-1.4080404E-3,8.2754785E-1,1.5044516E0,1.2488285E0,-1.3515563E0,-1.2859966E0,1.3212988E0,1.4411647E0,1.2571356E0,1.1788317E0,-7.039686E-2,-6.7156285E-2,-6.613983E-2,-6.505904E-2,1.2863306E0,4.4648147E-1,1.161594E0,1.2415782E0,-1.3961899E0,-5.3280646E-1,6.645572E-1,-2.548723E-1,1.4652877E0,1.227296E0,7.9135627E-1,1.2892357E0,-1.8975596E0,-4.3836424E-1,4.1433373E-1,7.7800745E-1,5.0963636E-2,2.4761615E-2,7.0790045E-2,7.622438E-2,6.324473E-2,4.415245E-2,-6.7839585E-2,-6.523325E-2,-6.533953E-2,-6.405376E-2,6.3035354E-2,6.6926874E-2,7.550447E-2,6.812862E-2,6.289486E-2,3.6079638E-2,4.987951E-2,5.963716E-2,6.1086603E-2,6.53074E-2,3.7383493E-2,-3.082933E-2,6.1748862E-2,5.3754438E-2,4.6188623E-2,6.2442865E-2,-7.2755694E-2,-6.804798E-2,6.632416E-2,-7.006605E-2,6.315177E-2,2.237619E-2,-3.9565586E-2,1.3435701E-3,6.886437E-2,8.047127E-2,6.199799E-2,3.5351213E-2,-1.0083589E-2,4.482683E-2,6.550216E-2,6.291646E-2,-8.940952E-2,-9.6290655E-2,7.209421E-2,-9.1668725E-2,3.4006808E-2,-5.486199E-3,6.4460814E-2,3.7023168E-2],"categories":[],"categories_nodes":[],"categories_segments":[],"categories_sizes":[],"default_left":[0,0,0,0,0,0,0,0,0,0,0,0,0,0,0,0,0,0,0,0,0,0,0,0,0,0,0,0,0,0,0,0,0,0,0,0,0,0,0,0,0,0,0,0,0,0,0,0,0,0,0,0,0,0,0,0,0,0,0,0,0,0,0,0,0,0,0,0,0,0,0,0,0,0,0,0,0,0,0,0,0,0,0,0,0,0,0,0,0,0,0,0,0,0,0,0,0,0,0,0,0,0,0,0,0,0,0,0,0,0,0],"id":17,"left_children":[1,3,5,7,9,11,13,15,17,19,21,23,25,27,29,31,-1,33,35,37,39,41,43,45,47,49,51,53,55,57,59,-1,61,63,65,67,69,71,73,75,77,-1,-1,-1,-1,79,81,83,85,87,89,91,93,95,97,99,101,103,105,107,109,-1,-1,-1,-1,-1,-1,-1,-1,-1,-1,-1,